{"learner":{"attributes":{"best_iteration":"599","best_ntree_limit":"600","scikit_learn":"{\"use_label_encoder\": null, \"n_estimators\": 600, \"objective\": \"binary:logistic\", \"max_depth\": 6, \"max_leaves\": null, \"max_bin\": null, \"grow_policy\": null, \"learning_rate\": 0.02, \"verbosity\": null, \"booster\": null, \"tree_method\": null, \"gamma\": null, \"min_child_weight\": null, \"max_delta_step\": null, \"subsample\": 0.8, \"sampling_method\": null, \"colsample_bytree\": 0.8, \"colsample_bylevel\": null, \"colsample_bynode\": null, \"reg_alpha\": null, \"reg_lambda\": null, \"scale_pos_weight\": null, \"base_score\": null, \"missing\": NaN, \"num_parallel_tree\": null, \"random_state\": 42, \"n_jobs\": null, \"monotone_constraints\": null, \"interaction_constraints\": null, \"importance_type\": null, \"gpu_id\": null, \"validate_parameters\": null, \"predictor\": null, \"enable_categorical\": false, \"feature_types\": null, \"max_cat_to_onehot\": null, \"max_cat_threshold\": null, \"eval_metric\": \"logloss\", \"early_stopping_rounds\": null, \"callbacks\": null, \"classes_\": [0, 1], \"n_classes_\": 2, \"_estimator_type\": \"classifier\"}"},"feature_names":[],"feature_types":[],"gradient_booster":{"model":{"gbtree_model_param":{"num_parallel_tree":"1","num_trees":"600","size_leaf_vector":"0"},"tree_info":[0,0,0,0,0,0,0,0,0,0,0,0,0,0,0,0,0,0,0,0,0,0,0,0,0,0,0,0,0,0,0,0,0,0,0,0,0,0,0,0,0,0,0,0,0,0,0,0,0,0,0,0,0,0,0,0,0,0,0,0,0,0,0,0,0,0,0,0,0,0,0,0,0,0,0,0,0,0,0,0,0,0,0,0,0,0,0,0,0,0,0,0,0,0,0,0,0,0,0,0,0,0,0,0,0,0,0,0,0,0,0,0,0,0,0,0,0,0,0,0,0,0,0,0,0,0,0,0,0,0,0,0,0,0,0,0,0,0,0,0,0,0,0,0,0,0,0,0,0,0,0,0,0,0,0,0,0,0,0,0,0,0,0,0,0,0,0,0,0,0,0,0,0,0,0,0,0,0,0,0,0,0,0,0,0,0,0,0,0,0,0,0,0,0,0,0,0,0,0,0,0,0,0,0,0,0,0,0,0,0,0,0,0,0,0,0,0,0,0,0,0,0,0,0,0,0,0,0,0,0,0,0,0,0,0,0,0,0,0,0,0,0,0,0,0,0,0,0,0,0,0,0,0,0,0,0,0,0,0,0,0,0,0,0,0,0,0,0,0,0,0,0,0,0,0,0,0,0,0,0,0,0,0,0,0,0,0,0,0,0,0,0,0,0,0,0,0,0,0,0,0,0,0,0,0,0,0,0,0,0,0,0,0,0,0,0,0,0,0,0,0,0,0,0,0,0,0,0,0,0,0,0,0,0,0,0,0,0,0,0,0,0,0,0,0,0,0,0,0,0,0,0,0,0,0,0,0,0,0,0,0,0,0,0,0,0,0,0,0,0,0,0,0,0,0,0,0,0,0,0,0,0,0,0,0,0,0,0,0,0,0,0,0,0,0,0,0,0,0,0,0,0,0,0,0,0,0,0,0,0,0,0,0,0,0,0,0,0,0,0,0,0,0,0,0,0,0,0,0,0,0,0,0,0,0,0,0,0,0,0,0,0,0,0,0,0,0,0,0,0,0,0,0,0,0,0,0,0,0,0,0,0,0,0,0,0,0,0,0,0,0,0,0,0,0,0,0,0,0,0,0,0,0,0,0,0,0,0,0,0,0,0,0,0,0,0,0,0,0,0,0,0,0,0,0,0,0,0,0,0,0,0,0,0,0,0,0,0,0,0,0,0,0,0,0,0,0,0,0,0,0,0,0,0,0,0,0,0,0,0,0,0,0,0,0,0,0,0,0,0,0,0,0,0,0,0,0,0,0,0,0,0,0,0,0,0,0,0,0,0,0,0,0,0,0,0,0,0,0,0,0,0,0,0,0,0,0,0,0,0,0,0,0,0,0,0,0,0,0,0],"trees":[{"base_weights":[1.1992006E-2,8.034127E-2,-9.8445594E-1,-2.9234737E-2,5.98778E-1,8.8E-1,-1.2325581E0,8.648649E-1,-8.9825846E-2,1.032258E0,1.5384616E-1,-3.3333334E-1,1.5294118E0,4E-1,-1.3540373E0,-7.826087E-1,1.1317829E0,7.549669E-1,-1.5233415E-1,1.3563218E0,2.5641027E-1,1.6923077E0,-2.6666667E-2,5E-1,-1E0,-1E0,1.2727273E0,-1.5555556E0,-2.6666668E-1,1.1111112E0,-1.5555556E0,1.7692307E0,6.666667E-1,-1E0,8.29932E-1,-1.1229135E-1,-1.4193548E0,-1.0769231E0,1.5151515E0,-9.230769E-1,7.8571427E-1,-1E0,4.2038217E-1,-1.7777778E0,-5.8064514E-1,1.3846154E0,-1.2380953E0,5E-1,1.8333334E0,-2E-1,1.3777778E0,1.5428572E0,5.862069E-1,-2.1595092E-1,3.7037036E-1,-0E0,-1.5172414E0,1.826087E0,1.0649351E0,-1.5789474E0,5.4545456E-1,1.2E0,-6.666667E-1,-1.5454545E0,-1.25E-1,8.468468E-1,-5.6E-1,-0E0,-1.8461539E0,9.3333334E-1,-1.6E0,-0E0,-1.5294118E0],"categories":[],"categories_nodes":[],"categories_segments":[],"categories_sizes":[],"default_left":[1,1,1,1,1,1,1,1,1,1,1,1,0,1,1,1,1,1,1,1,1,0,1,0,0,0,0,1,1,0,0,1,1,0,1,1,1,0,1,1,1,1,1,1,1,0,1,0,0,0,0,0,0,0,0,0,0,0,0,0,0,0,0,0,0,0,0,0,0,0,0,0,0],"id":0,"left_children":[1,3,5,7,9,11,13,15,17,19,21,23,-1,25,27,29,31,33,35,37,39,-1,41,-1,-1,-1,-1,43,45,-1,-1,47,49,-1,51,53,55,-1,57,59,61,63,65,67,69,-1,71,-1,-1,-1,-1,-1,-1,-1,-1,-1,-1,-1,-1,-1,-1,-1,-1,-1,-1,-1,-1,-1,-1,-1,-1,-1,-1],"loss_changes":[5.1193012E1,3.9967888E1,2.340393E1,3.158015E1,2.3515873E1,5.4345093E0,9.069443E0,1.7156141E1,2.8920986E1,1.5240524E1,1.7193848E1,2.1666667E0,0E0,5.8545456E0,8.404968E0,1.0144928E1,8.382229E0,5.7963696E0,2.565208E1,1.8443214E1,1.2899268E1,0E0,2.4896305E1,0E0,0E0,0E0,0E0,6.2795715E0,1.3745054E1,0E0,0E0,1.4102554E-1,1.2755556E1,0E0,5.481163E0,2.4808548E1,2.1535034E0,0E0,3.8298569E0,7.121825E0,9.223809E0,8.397728E0,1.6884596E1,3.282051E0,1.3453764E1,0E0,1.8935575E0,0E0,0E0,0E0,0E0,0E0,0E0,0E0,0E0,0E0,0E0,0E0,0E0,0E0,0E0,0E0,0E0,0E0,0E0,0E0,0E0,0E0,0E0,0E0,0E0,0E0,0E0],"parents":[2147483647,0,0,1,1,2,2,3,3,4,4,5,5,6,6,7,7,8,8,9,9,10,10,11,11,13,13,14,14,15,15,16,16,17,17,18,18,19,19,20,20,22,22,27,27,28,28,31,31,32,32,34,34,35,35,36,36,38,38,39,39,40,40,41,41,42,42,43,43,44,44,46,46],"right_children":[2,4,6,8,10,12,14,16,18,20,22,24,-1,26,28,30,32,34,36,38,40,-1,42,-1,-1,-1,-1,44,46,-1,-1,48,50,-1,52,54,56,-1,58,60,62,64,66,68,70,-1,72,-1,-1,-1,-1,-1,-1,-1,-1,-1,-1,-1,-1,-1,-1,-1,-1,-1,-1,-1,-1,-1,-1,-1,-1,-1,-1],"split_conditions":[1.490272E0,9.446664E-1,-8.809897E-1,-7.6941276E-1,1.8911152E0,-1.190798E0,-8.2094085E-1,-7.747885E-1,-1.5334593E0,1.0636816E0,-1.5928746E0,1.4757826E0,3.0588236E-2,1.4857695E0,1.0492704E0,8.0029047E-1,-2.1653469E-1,-4.0733495E0,2.0883956E0,-8.338479E-1,1.0105735E0,3.3846155E-2,-6.8846005E-1,1E-2,-2E-2,-2E-2,2.5454544E-2,1.7306585E0,2.149473E0,2.2222223E-2,-3.1111112E-2,-1.5713023E-2,7.717091E-1,-2E-2,-2.2102766E0,6.3576674E-1,9.992676E-1,-2.1538462E-2,1.5988295E0,-6.3705385E-1,1.2217762E0,3.8315493E-1,-1.3968829E0,1.4219828E0,1.7877784E0,2.7692309E-2,1.6273768E0,1E-2,3.6666665E-2,-4E-3,2.7555555E-2,3.0857142E-2,1.1724138E-2,-4.319018E-3,7.407407E-3,-0E0,-3.0344827E-2,3.652174E-2,2.1298701E-2,-3.1578947E-2,1.0909091E-2,2.4E-2,-1.3333334E-2,-3.090909E-2,-2.5E-3,1.6936935E-2,-1.12E-2,-0E0,-3.6923077E-2,1.8666666E-2,-3.2E-2,-0E0,-3.0588236E-2],"split_indices":[6,8,14,8,8,11,13,10,14,13,2,1,0,1,12,2,10,12,7,10,12,0,10,0,0,0,0,6,14,0,0,6,7,0,11,7,1,0,8,10,14,13,3,1,4,0,2,0,0,0,0,0,0,0,0,0,0,0,0,0,0,0,0,0,0,0,0,0,0,0,0,0,0],"split_type":[0,0,0,0,0,0,0,0,0,0,0,0,0,0,0,0,0,0,0,0,0,0,0,0,0,0,0,0,0,0,0,0,0,0,0,0,0,0,0,0,0,0,0,0,0,0,0,0,0,0,0,0,0,0,0,0,0,0,0,0,0,0,0,0,0,0,0,0,0,0,0,0,0],"sum_hessian":[7.495E2,7.0225E2,4.725E1,5.805E2,1.2175E2,5.25E0,4.2E1,3.6E1,5.445E2,6.1E1,6.075E1,2E0,3.25E0,2.75E0,3.925E1,4.75E0,3.125E1,3.675E1,5.0775E2,4.25E1,1.85E1,5.5E0,5.525E1,1E0,1E0,1E0,1.75E0,3.275E1,6.5E0,1.25E0,3.5E0,1.2E1,1.925E1,1E0,3.575E1,4.9325E2,1.45E1,2.25E0,4.025E1,5.5E0,1.3E1,1.7E1,3.825E1,2.6E1,6.75E0,2.25E0,4.25E0,1E0,1.1E1,9E0,1.025E1,7.75E0,2.8E1,4.065E2,8.675E1,1E0,1.35E1,2.2E1,1.825E1,3.75E0,1.75E0,1.025E1,2.75E0,1E1,7E0,2.675E1,1.15E1,1E0,2.5E1,2.75E0,4E0,1E0,3.25E0],"tree_param":{"num_deleted":"0","num_feature":"15","num_nodes":"73","size_leaf_vector":"0"}},{"base_weights":[-8.081917E-3,7.29889E-1,-8.5147016E-2,-1.0832652E0,1.0423714E0,-2.735176E-2,-9.632474E-1,1.3362168E0,-1.7694182E0,1.63782E0,7.923196E-1,7.2305065E-1,-7.334959E-2,4.1814387E-1,-1.2613735E0,1.8396505E0,6.5717506E-1,1.0233359E0,-4.427935E-2,-1.0225902E0,1.0413957E0,1.0992131E0,-1.0848714E-1,-4.3670246E-1,1.1399971E0,-1.5397365E0,-4.6527216E-1,-6.64269E-1,1.3698725E0,1.609149E0,5.0271136E-1,1.3691244E0,-5.795396E-1,6.60301E-1,-1.5754182E0,1.6840347E0,5.131362E-1,1.366722E0,-6.716111E-1,6.172565E-1,-1.5708679E-1,7.959739E-1,-1.3184296E0,1.4083972E0,2.1578778E-1,-1.6360692E0,8.6861016E-4,6.6198564E-1,-1.6104915E0,1.6958411E0,6.610192E-1,-1.4285766E0,8.552208E-1,1.1798971E0,-1.1251059E0,5.3909945E-1,1.8036216E0,-4.5431383E-2,1.4247557E0,1.5186548E0,-2.1982338E-1,3.0763483E-1,1.402802E0,-5.431476E-2,-4.9440262E-1,-2.1862309E-1,-1.7043425E0,1.320966E0,2.1807267E-3],"categories":[],"categories_nodes":[],"categories_segments":[],"categories_sizes":[],"default_left":[1,1,1,1,1,1,1,0,0,1,1,1,1,1,1,0,1,1,1,1,1,1,1,1,1,1,1,0,0,1,1,0,1,0,0,1,1,1,0,1,1,0,0,0,0,1,0,1,0,0,0,0,0,0,0,0,0,0,0,0,0,0,0,0,0,0,0,0,0],"id":1,"left_children":[1,3,5,7,9,11,13,-1,-1,15,17,19,21,23,25,-1,27,29,31,33,35,37,39,41,43,45,47,-1,-1,49,51,-1,53,-1,-1,55,57,59,-1,61,63,-1,-1,-1,-1,65,-1,67,-1,-1,-1,-1,-1,-1,-1,-1,-1,-1,-1,-1,-1,-1,-1,-1,-1,-1,-1,-1,-1],"loss_changes":[4.299776E1,4.1633087E1,3.471032E1,2.0625265E1,7.8575897E0,2.2255205E1,1.7922771E1,0E0,0E0,2.2047997E0,8.788958E0,2.1761484E1,2.512757E1,5.5879517E0,7.0376663E0,0E0,5.1477475E0,1.0016029E1,8.92476E0,6.8538623E0,9.997253E0,9.326174E0,2.0915031E1,5.93991E0,8.74177E-1,3.7847557E0,1.4618659E1,0E0,0E0,2.1440887E-1,1.5005469E1,0E0,9.484981E0,0E0,0E0,9.440117E-1,9.738544E0,4.1302967E0,0E0,8.627822E0,1.9177986E1,0E0,0E0,0E0,0E0,1.9492645E0,0E0,2.605566E0,0E0,0E0,0E0,0E0,0E0,0E0,0E0,0E0,0E0,0E0,0E0,0E0,0E0,0E0,0E0,0E0,0E0,0E0,0E0,0E0,0E0],"parents":[2147483647,0,0,1,1,2,2,3,3,4,4,5,5,6,6,9,9,10,10,11,11,12,12,13,13,14,14,16,16,17,17,18,18,19,19,20,20,21,21,22,22,23,23,24,24,25,25,26,26,29,29,30,30,32,32,35,35,36,36,37,37,39,39,40,40,45,45,47,47],"right_children":[2,4,6,8,10,12,14,-1,-1,16,18,20,22,24,26,-1,28,30,32,34,36,38,40,42,44,46,48,-1,-1,50,52,-1,54,-1,-1,56,58,60,-1,62,64,-1,-1,-1,-1,66,-1,68,-1,-1,-1,-1,-1,-1,-1,-1,-1,-1,-1,-1,-1,-1,-1,-1,-1,-1,-1,-1,-1],"split_conditions":[-1.4933189E0,-8.4091675E-1,1.503501E0,-1.9726076E0,-6.231718E-1,-7.6941276E-1,-6.6085064E-1,2.6724335E-2,-3.5388365E-2,5.1545393E-1,2.1089416E0,-7.747885E-1,-1.5489763E0,1.5069826E0,1.7114758E0,3.679301E-2,-1.8944013E0,4.025727E-3,-1.5750325E0,8.410286E-1,-2.1653469E-1,9.188591E-1,-1.5334593E0,1.4226608E0,1.6179962E0,1.5805484E0,1.7892935E0,-1.3285379E-2,2.7397448E-2,-1.5090482E0,-1.9389471E0,2.7382487E-2,-1.5969148E0,1.320602E-2,-3.1508364E-2,3.0278477E-3,1.8189771E0,2.2925882E0,-1.34322215E-2,9.6228987E-1,9.190569E-1,1.5919477E-2,-2.6368592E-2,2.8167943E-2,4.315756E-3,-8.272439E-1,1.7372204E-5,1.9781926E-1,-3.220983E-2,3.391682E-2,1.3220384E-2,-2.8571531E-2,1.7104415E-2,2.359794E-2,-2.2502117E-2,1.07819885E-2,3.6072433E-2,-9.0862764E-4,2.8495112E-2,3.0373096E-2,-4.3964675E-3,6.1526964E-3,2.8056039E-2,-1.0862951E-3,-9.888052E-3,-4.3724617E-3,-3.408685E-2,2.641932E-2,4.3614535E-5],"split_indices":[4,10,6,5,9,8,13,0,0,13,8,10,9,1,5,0,1,14,6,2,10,1,14,1,1,12,3,0,0,5,1,0,2,0,0,5,10,13,0,5,9,0,0,0,0,14,0,12,0,0,0,0,0,0,0,0,0,0,0,0,0,0,0,0,0,0,0,0,0],"split_type":[0,0,0,0,0,0,0,0,0,0,0,0,0,0,0,0,0,0,0,0,0,0,0,0,0,0,0,0,0,0,0,0,0,0,0,0,0,0,0,0,0,0,0,0,0,0,0,0,0,0,0,0,0,0,0,0,0,0,0,0,0,0,0,0,0,0,0,0,0],"sum_hessian":[7.539544E2,7.04886E1,6.834658E2,9.99967E0,6.0488934E1,6.4222656E2,4.1239243E1,1.9999907E0,7.999679E0,1.6247889E1,4.4241043E1,3.624305E1,6.059835E2,7.2487946E0,3.3990448E1,1.2748176E1,3.4997132E0,3.449302E1,9.748025E0,5.248848E0,3.09942E1,1.6749771E1,5.8923376E2,3.4995358E0,3.7492588E0,2.4492397E1,9.498052E0,1.2499942E0,2.2497191E0,1.5246578E1,1.9246439E1,2.2496777E0,7.498347E0,1.2498161E0,3.999032E0,1.2996176E1,1.7998024E1,1.4749799E1,1.9999726E0,3.6247353E1,5.529864E2,1.4998977E0,1.9996381E0,2.4994872E0,1.2497716E0,2.2992718E1,1.4996809E0,4.9992085E0,4.4988437E0,1.3246746E1,1.9998324E0,2.4995584E0,1.6746881E1,1.4995705E0,5.9987764E0,1.7499563E0,1.124622E1,1.174921E1,6.2488136E0,1.34998045E1,1.2499942E0,2.6997818E1,9.249534E0,4.2473947E2,1.282469E2,1.2496877E0,2.1743029E1,1.9998258E0,2.9993825E0],"tree_param":{"num_deleted":"0","num_feature":"15","num_nodes":"69","size_leaf_vector":"0"}},{"base_weights":[2.8682007E-2,3.3881158E-1,-1.7002526E-1,3.855617E-1,-1.2888765E0,1.2628784E0,-2.1921104E-1,1.748447E0,3.39255E-1,1.4667358E0,-3.8400778E-1,1.9484994E-1,-3.739137E-1,-1.2367421E0,3.9304554E-1,1.5745566E0,2.0380975E-1,-1.5828493E0,2.6431865E-1,-7.1877533E-1,5.392663E-3,6.6153675E-1,-1.6045936E0,3.4533682E-1,1.7493924E0,1.2757883E0,1.5701093E-1,-1.677392E-2,-9.4716805E-1,3.765582E-1,-9.090057E-1,4.1614988E-1,-9.7353274E-1,-2.3321839E-1,1.4877294E0,-1.8132365E-1,5.315179E-1,5.542439E-1,-1.4952829E0,-5.641266E-1,-1.4063338E0,1.5195453E0,2.0110661E-1,1.0239158E0,-1.13309E0],"categories":[],"categories_nodes":[],"categories_segments":[],"categories_sizes":[],"default_left":[1,1,1,1,0,1,1,0,1,1,0,1,1,1,1,0,0,0,1,1,1,0,0,1,0,1,1,1,1,1,1,0,0,0,0,0,0,0,0,0,0,0,0,0,0],"id":2,"left_children":[1,3,5,7,-1,9,11,-1,13,15,-1,17,19,21,23,-1,-1,-1,25,27,29,-1,-1,31,-1,33,35,37,39,41,43,-1,-1,-1,-1,-1,-1,-1,-1,-1,-1,-1,-1,-1,-1],"loss_changes":[4.6745556E1,2.3035557E1,3.2867634E1,1.7626396E1,0E0,5.765106E0,2.8765463E1,0E0,2.4260574E1,1.5847836E0,0E0,1.5545572E1,4.270422E1,7.6932383E0,1.6993576E1,0E0,0E0,0E0,1.26878805E1,2.7398994E1,5.343919E1,0E0,0E0,2.5056684E1,0E0,3.944601E0,1.3843527E1,3.7125072E1,2.1894402E1,2.2151697E1,2.0851414E1,0E0,0E0,0E0,0E0,0E0,0E0,0E0,0E0,0E0,0E0,0E0,0E0,0E0,0E0],"parents":[2147483647,0,0,1,1,2,2,3,3,5,5,6,6,8,8,9,9,11,11,12,12,13,13,14,14,18,18,19,19,20,20,23,23,25,25,26,26,27,27,28,28,29,29,30,30],"right_children":[2,4,6,8,-1,10,12,-1,14,16,-1,18,20,22,24,-1,-1,-1,26,28,30,-1,-1,32,-1,34,36,38,40,42,44,-1,-1,-1,-1,-1,-1,-1,-1,-1,-1,-1,-1,-1,-1],"split_conditions":[-3.3150294E-1,2.592156E0,-1.9497443E0,-1.9722446E0,-2.577753E-2,-1.270528E0,4.4872716E-2,3.496894E-2,-1.5050895E0,-1.0386754E0,-7.6801553E-3,-1.6842252E0,7.4736154E-1,-1.9701288E0,-3.7818295E-1,3.149113E-2,4.076195E-3,-3.1656984E-2,-3.1918412E-1,-1.7881653E-1,1.490272E0,1.32307345E-2,-3.209187E-2,1.3396127E0,3.498785E-2,-4.347044E-1,-6.0583925E-1,1.1619638E0,1.7756712E-1,5.625529E-1,-9.223294E-1,8.322998E-3,-1.9470654E-2,-4.6643675E-3,2.9754588E-2,-3.6264728E-3,1.0630358E-2,1.1084878E-2,-2.9905656E-2,-1.1282532E-2,-2.8126676E-2,3.0390905E-2,4.022132E-3,2.0478316E-2,-2.26618E-2],"split_indices":[7,13,14,5,0,13,5,0,7,11,0,13,7,6,7,0,0,0,5,7,6,0,0,14,0,5,8,1,1,6,14,0,0,0,0,0,0,0,0,0,0,0,0,0,0],"split_type":[0,0,0,0,0,0,0,0,0,0,0,0,0,0,0,0,0,0,0,0,0,0,0,0,0,0,0,0,0,0,0,0,0,0,0,0,0,0,0,0,0,0,0,0,0],"sum_hessian":[7.5661383E2,2.95192E2,4.6142184E2,2.8769208E2,7.49991E0,1.4494203E1,4.4692764E2,8.245811E0,2.7944626E2,1.2995022E1,1.4991809E0,1.2149291E2,3.2543472E2,8.497189E0,2.7094907E2,1.1745511E1,1.2495108E0,3.749835E0,1.1774308E2,1.6998817E2,1.5544655E2,1.2497153E0,7.2474737E0,2.629544E2,7.9946632E0,1.0248919E1,1.07494156E2,4.1992126E1,1.2799605E2,1.1098469E2,4.446186E1,2.5020482E2,1.2749597E1,1.2498285E0,8.99909E0,5.6745426E1,5.0748734E1,3.0743681E1,1.1248444E1,7.0997604E1,5.6998447E1,1.3749863E1,9.7234825E1,4.248191E0,4.0213673E1],"tree_param":{"num_deleted":"0","num_feature":"15","num_nodes":"45","size_leaf_vector":"0"}},{"base_weights":[-1.8221347E-2,2.1333687E-2,-1.3077871E0,-8.5665844E-2,4.9620688E-1,-1.6917701E0,-7.1716857E-1,1.0330691E0,-1.2349848E-1,1.603665E0,2.2637285E-1,3.7607363E-1,-1.6006615E0,5.6645732E-2,1.3887918E0,-6.627249E-2,-9.9614143E-1,1.7467858E0,-6.8239784E-1,5.869882E-1,-5.724001E-1,-1.163216E0,1.2435391E0,-5.311121E-1,1.1513778E0,1.4881061E0,1.9788148E-1,2.8549242E-1,-1.9620872E-1,-1.2609679E0,5.049069E-1,1.990548E-1,1.0644083E0,-2.5190163E-2,-1.4112663E0,3.165584E-1,-1.2628042E0,1.0643511E-1,1.3614587E0,-4.0571192E-1,2.4360977E-1,-1.8108517E0,-9.219085E-1,9.520201E-1,-6.63401E-1,7.048249E-1,-1.1549685E0,1.3425398E0,-3.6449736E-1,-1.0238705E0,4.435543E-1,-1.7690265E0,-6.692476E-1],"categories":[],"categories_nodes":[],"categories_segments":[],"categories_sizes":[],"default_left":[1,1,1,1,1,0,1,1,1,1,1,1,0,1,1,1,1,0,0,1,1,0,0,1,0,0,0,1,1,1,1,1,1,1,1,0,0,0,0,0,0,0,0,0,0,0,0,0,0,0,0,0,0],"id":3,"left_children":[1,3,5,7,9,-1,11,13,15,17,19,21,-1,23,25,27,29,-1,-1,31,33,-1,-1,35,-1,-1,-1,37,39,41,43,45,47,49,51,-1,-1,-1,-1,-1,-1,-1,-1,-1,-1,-1,-1,-1,-1,-1,-1,-1,-1],"loss_changes":[3.808099E1,3.68701E1,3.8253746E0,2.5199224E1,3.9509254E1,0E0,1.0733324E1,6.688715E0,2.8592361E1,9.69104E0,3.1575472E1,8.787764E0,0E0,4.6299357E0,1.389576E0,2.4721087E1,1.4647762E1,0E0,0E0,1.3718046E1,1.5681394E1,0E0,0E0,3.344543E0,0E0,0E0,0E0,2.7977753E1,3.6464478E1,3.9698296E0,3.7657442E0,3.0073336E1,1.3798035E1,1.0631176E1,2.3996105E0,0E0,0E0,0E0,0E0,0E0,0E0,0E0,0E0,0E0,0E0,0E0,0E0,0E0,0E0,0E0,0E0,0E0,0E0],"parents":[2147483647,0,0,1,1,2,2,3,3,4,4,6,6,7,7,8,8,9,9,10,10,11,11,13,13,14,14,15,15,16,16,19,19,20,20,23,23,27,27,28,28,29,29,30,30,31,31,32,32,33,33,34,34],"right_children":[2,4,6,8,10,-1,12,14,16,18,20,22,-1,24,26,28,30,-1,-1,32,34,-1,-1,36,-1,-1,-1,38,40,42,44,46,48,50,52,-1,-1,-1,-1,-1,-1,-1,-1,-1,-1,-1,-1,-1,-1,-1,-1,-1,-1],"split_conditions":[1.6559055E0,9.446664E-1,1.7164629E0,-2.0105958E0,-5.222459E-1,-3.38354E-2,1.7790272E0,-7.8078663E-1,1.5843508E0,4.6132228E-1,2.0410547E0,2.4764762E0,-3.201323E-2,1.1072221E0,1.81935E0,-3.3150294E-1,2.6092672E0,3.4935713E-2,-1.3647957E-2,-5.9999883E-1,4.0134333E-2,-2.3264319E-2,2.4870781E-2,8.0803585E-1,2.3027556E-2,2.9762123E-2,3.957629E-3,-7.361072E-1,6.3576674E-1,-7.2116256E-1,-7.4644E-1,-1.4583098E0,1.5059419E0,-1.4838262E0,-1.1213908E0,6.3311676E-3,-2.5256082E-2,2.1287021E-3,2.7229173E-2,-8.114238E-3,4.8721954E-3,-3.6217034E-2,-1.843817E-2,1.9040402E-2,-1.326802E-2,1.40964985E-2,-2.309937E-2,2.6850795E-2,-7.289947E-3,-2.0477409E-2,8.871086E-3,-3.538053E-2,-1.3384952E-2],"split_indices":[3,8,4,14,9,0,1,10,9,14,8,7,0,6,9,7,9,0,0,10,14,0,0,1,0,0,0,10,7,10,1,6,6,6,7,0,0,0,0,0,0,0,0,0,0,0,0,0,0,0,0,0,0],"split_type":[0,0,0,0,0,0,0,0,0,0,0,0,0,0,0,0,0,0,0,0,0,0,0,0,0,0,0,0,0,0,0,0,0,0,0,0,0,0,0,0,0,0,0,0,0,0,0,0,0,0,0,0,0],"sum_hessian":[7.450101E2,7.2379254E2,2.1217535E1,5.913645E2,1.3242802E2,1.1728194E1,9.489342E0,1.848369E1,5.7288086E2,2.4976372E1,1.0745165E2,4.4979143E0,4.991427E0,5.2452483E0,1.3238442E1,5.3863434E2,3.42465E1,2.3726831E1,1.2495401E0,7.421263E1,3.3239025E1,1.4982975E0,2.999617E0,3.7478747E0,1.4973735E0,1.1989077E1,1.249366E0,1.449707E2,3.936636E2,2.9246544E1,4.9999566E0,4.172523E1,3.24874E1,2.0739952E1,1.2499072E1,1.9991763E0,1.7486986E0,1.25229515E2,1.9741196E1,2.6670084E2,1.2696277E2,9.499506E0,1.9747036E1,3.7499676E0,1.2499892E0,3.0727139E1,1.0998091E1,2.724475E1,5.242653E0,6.2467337E0,1.4493217E1,7.4992695E0,4.9998026E0],"tree_param":{"num_deleted":"0","num_feature":"15","num_nodes":"53","size_leaf_vector":"0"}},{"base_weights":[1.1858413E-2,4.7060403E-1,-1.2132131E-1,5.876868E-1,-7.515938E-1,8.2042867E-1,-1.8419652E-1,1.1555158E0,3.0715674E-1,-1.1432985E0,4.383853E-1,-8.731304E-1,1.0837792E0,-1.3488178E-1,-1.2555676E0,3.5626076E-3,1.5702958E0,6.1171865E-1,-4.5907077E-1,4.1101155E-1,-1.4108937E0,1.3637799E0,-1.0931276E0,6.424694E-1,-1.4702793E0,1.7820429E0,5.2040726E-1,2.8061938E-1,-2.6748085E-1,1.1797453E-1,-1.4763271E0,1.6281357E0,-1.0945301E0,1.6646044E0,-4.1430816E-1,-8.7133855E-1,7.7548873E-1,-1.1125425E0,2.4490392E-1,-2.1367489E-1,-1.5534517E0,-4.5431918E-1,1.1816761E0,1.3809359E0,2.1259728E-1,-1.857032E-1,-1.0630459E0,-5.224939E-1,7.757362E-1,-1.8097243E0,-8.3958435E-1,6.48309E-1,-1.4479369E0,1.7103442E0,2.1941946E-1,6.536045E-1,-1.250529E0,5.5968165E-1,1.7249126E0,2.6947054E-1,-1.7197932E0,1.4522451E0,-4.2360172E-1,-5.811241E-1,-1.7078303E0,1.2772546E0,-1.0925721E0,1.3750077E0,-2.4529336E-1,1.5986291E0,1.8686675E-1,1.4345941E-1,1.1425805E0,-3.63735E-1,3.1586853E-1,-1.2864044E0,1.8156622E-1,1.2147005E0,-1.4129308E0],"categories":[],"categories_nodes":[],"categories_segments":[],"categories_sizes":[],"default_left":[1,1,1,1,1,1,1,1,1,1,1,1,1,1,1,1,1,1,1,0,1,0,0,0,0,0,1,1,1,1,1,0,1,1,0,1,1,1,1,0,1,1,1,1,1,1,1,0,0,0,1,0,0,0,0,0,0,0,0,0,0,0,0,0,0,0,0,0,0,0,0,0,0,0,0,0,0,0,0],"id":4,"left_children":[1,3,5,7,9,11,13,15,17,19,21,23,25,27,29,31,33,35,37,-1,39,-1,-1,-1,-1,-1,41,43,45,47,49,-1,51,53,-1,55,57,59,61,-1,63,65,67,69,71,73,75,-1,-1,-1,77,-1,-1,-1,-1,-1,-1,-1,-1,-1,-1,-1,-1,-1,-1,-1,-1,-1,-1,-1,-1,-1,-1,-1,-1,-1,-1,-1,-1],"loss_changes":[4.5992435E1,2.4678131E1,3.4701202E1,2.4355194E1,7.607402E0,1.7315157E1,2.8772753E1,2.4330673E1,2.4828438E1,5.4657917E0,7.8661156E0,5.915918E0,1.1742912E1,2.8989208E1,7.446842E0,2.7624874E1,7.69841E0,1.9061777E1,1.4298847E1,0E0,1.4169979E0,0E0,0E0,0E0,0E0,0E0,1.2937246E1,9.245615E0,2.5719234E1,2.1945167E0,2.8829117E0,0E0,6.6310434E0,2.0009232E0,0E0,5.4426975E0,1.3110931E1,1.3885008E1,1.3123469E1,0E0,3.5811424E-1,1.078794E1,3.5761185E0,1.5828266E0,7.6297183E0,3.247872E1,1.049688E1,0E0,0E0,0E0,1.2307283E1,0E0,0E0,0E0,0E0,0E0,0E0,0E0,0E0,0E0,0E0,0E0,0E0,0E0,0E0,0E0,0E0,0E0,0E0,0E0,0E0,0E0,0E0,0E0,0E0,0E0,0E0,0E0,0E0],"parents":[2147483647,0,0,1,1,2,2,3,3,4,4,5,5,6,6,7,7,8,8,9,9,10,10,11,11,12,12,13,13,14,14,15,15,16,16,17,17,18,18,20,20,26,26,27,27,28,28,29,29,30,30,32,32,33,33,35,35,36,36,37,37,38,38,40,40,41,41,42,42,43,43,44,44,45,45,46,46,50,50],"right_children":[2,4,6,8,10,12,14,16,18,20,22,24,26,28,30,32,34,36,38,-1,40,-1,-1,-1,-1,-1,42,44,46,48,50,-1,52,54,-1,56,58,60,62,-1,64,66,68,70,72,74,76,-1,-1,-1,78,-1,-1,-1,-1,-1,-1,-1,-1,-1,-1,-1,-1,-1,-1,-1,-1,-1,-1,-1,-1,-1,-1,-1,-1,-1,-1,-1,-1],"split_conditions":[-8.024394E-1,2.0032163E0,-7.6941276E-1,-5.325941E-1,-7.381725E-1,-7.747885E-1,1.5641054E0,-1.527478E0,1.9898791E0,-1.4992698E0,-1.1419401E0,-1.6811363E0,-2.1107224E-1,-6.1451125E-1,-8.7420785E-1,-1.9724641E0,1.7030265E0,-8.4186745E-1,-1.1230483E0,8.220231E-3,6.919588E-1,2.7275598E-2,-2.1862552E-2,1.2849388E-2,-2.9405586E-2,3.5640858E-2,7.717091E-1,-2.1022532E0,1.4674869E0,1.3246839E0,4.4906455E-1,3.2562714E-2,-1.9700414E0,-8.287699E-1,-8.286163E-3,-1.111117E0,1.1776166E0,-1.5119259E0,-1.4204689E0,-4.2734975E-3,-1.5691396E0,-1.8346065E-1,1.8692455E0,-1.7362636E0,2.1145349E0,6.3576674E-1,1.0616733E0,-1.0449878E-2,1.5514724E-2,-3.6194485E-2,5.711887E-1,1.2966179E-2,-2.8958738E-2,3.4206882E-2,4.388389E-3,1.307209E-2,-2.501058E-2,1.1193633E-2,3.4498252E-2,5.3894105E-3,-3.4395862E-2,2.9044902E-2,-8.472034E-3,-1.1622482E-2,-3.4156606E-2,2.554509E-2,-2.185144E-2,2.7500154E-2,-4.9058674E-3,3.1972583E-2,3.7373349E-3,2.869188E-3,2.285161E-2,-7.2747E-3,6.3173706E-3,-2.5728086E-2,3.6313243E-3,2.429401E-2,-2.8258616E-2],"split_indices":[6,13,8,9,10,10,9,7,8,9,1,13,10,13,14,6,13,10,7,0,11,0,0,0,0,0,7,11,6,1,1,0,5,6,0,10,12,1,6,0,1,12,14,12,10,7,12,0,0,0,5,0,0,0,0,0,0,0,0,0,0,0,0,0,0,0,0,0,0,0,0,0,0,0,0,0,0,0,0],"split_type":[0,0,0,0,0,0,0,0,0,0,0,0,0,0,0,0,0,0,0,0,0,0,0,0,0,0,0,0,0,0,0,0,0,0,0,0,0,0,0,0,0,0,0,0,0,0,0,0,0,0,0,0,0,0,0,0,0,0,0,0,0,0,0,0,0,0,0,0,0,0,0,0,0,0,0,0,0,0,0],"sum_hessian":[7.508599E2,1.6836903E2,5.8249084E2,1.5412361E2,1.424541E1,3.5701553E1,5.467893E2,4.9933247E1,1.0419037E2,1.0747041E1,3.4983685E0,4.4929223E0,3.120863E1,5.238047E2,2.2984606E1,1.3486444E1,3.6446804E1,7.4700066E1,2.9490305E1,1.4997708E0,9.247271E0,2.2489772E0,1.2493911E0,1.2484323E0,3.2444901E0,1.2969985E1,1.8238646E1,1.2645131E2,3.973534E2,3.2470992E0,1.9737507E1,5.2446113E0,8.241833E0,3.4947342E1,1.4994606E0,6.998954E0,6.770111E1,1.4992754E1,1.449755E1,1.2498386E0,7.9974318E0,7.498553E0,1.0740092E1,6.2384048E0,1.20212906E2,3.614343E2,3.5919094E1,1.7493703E0,1.4977288E0,1.174545E1,7.9920564E0,1.2488122E0,6.993021E0,3.369735E1,1.249992E0,1.2496617E0,5.749292E0,5.645761E1,1.1243499E1,4.7465506E0,1.0246203E1,4.7487645E0,9.748786E0,1.7485799E0,6.248852E0,1.7499049E0,5.7486477E0,9.490671E0,1.2494209E0,4.9898815E0,1.2485235E0,1.1296872E2,7.2441874E0,2.6695428E2,9.448003E1,3.0425367E1,5.493728E0,1.4997782E0,6.492278E0],"tree_param":{"num_deleted":"0","num_feature":"15","num_nodes":"79","size_leaf_vector":"0"}},{"base_weights":[-2.9122613E-3,7.865627E-1,-7.888597E-2,-7.9546183E-1,1.1442506E0,-3.5062034E-2,-1.1797997E0,1.4378479E0,-1.6300751E0,1.264085E0,2.3064122E-2,-1.325832E-1,2.9132208E-1,6.7156285E-1,-1.3608216E0,-1.21495046E-1,1.3817642E0,-1.0408187E0,1.3262631E0,9.967191E-2,-4.0035826E-1,1.5127698E0,1.7576233E-1,-1.5115656E0,-2.2219376E-1,1.2102457E0,-1.3003219E0,1.5971146E0,9.397012E-1,-1.3044779E0,-2.556066E-1,2.0656073E-1,-6.332721E-1,1.17917396E-1,-8.807124E-1,1.7518963E0,7.7978843E-1,1.3529657E0,8.220851E-2,-1.7584304E0,-5.913482E-1,-1.2234272E0,1.0991446E0,1.6519336E0,2.1203038E-1,-1.4019513E0,1.4327042E0,4.9775046E-1,-1.8286996E-1,-1.2074717E0,3.7119663E-1,1.0738294E0,-1.081447E-1,3.2335097E-1,-1.0231493E0,-6.8237466E-1,1.4491266E0,1.709549E0,-6.733736E-1,-5.558195E-1,2.1993954E-1,1.1916828E0,-1.4537456E0],"categories":[],"categories_nodes":[],"categories_segments":[],"categories_sizes":[],"default_left":[1,1,1,1,1,1,1,0,0,1,1,1,1,0,1,1,1,1,0,1,1,1,1,1,1,0,0,1,1,0,0,1,1,1,1,0,1,1,1,0,1,0,0,0,0,0,0,0,0,0,0,0,0,0,0,0,0,0,0,0,0,0,0],"id":5,"left_children":[1,3,5,7,9,11,13,-1,-1,15,17,19,21,-1,23,25,27,29,-1,31,33,35,37,39,41,-1,-1,43,45,-1,-1,47,49,51,53,-1,55,57,59,-1,61,-1,-1,-1,-1,-1,-1,-1,-1,-1,-1,-1,-1,-1,-1,-1,-1,-1,-1,-1,-1,-1,-1],"loss_changes":[4.4980103E1,3.816315E1,3.2962013E1,2.6071255E1,7.2399826E0,2.1011057E1,9.680126E0,0E0,0E0,8.13475E0,1.0035813E1,3.1633884E1,2.1174253E1,0E0,3.8106155E0,9.021429E0,2.7941818E0,4.941225E-1,0E0,2.1506601E1,5.8897053E1,9.1197205E-1,1.5296085E1,3.767315E0,6.6322074E0,0E0,0E0,1.844696E0,2.187449E1,0E0,0E0,2.7178993E1,2.0619003E1,2.485422E1,2.1371086E1,0E0,5.8815727E0,8.546354E0,1.1604513E1,0E0,1.0931976E1,0E0,0E0,0E0,0E0,0E0,0E0,0E0,0E0,0E0,0E0,0E0,0E0,0E0,0E0,0E0,0E0,0E0,0E0,0E0,0E0,0E0,0E0],"parents":[2147483647,0,0,1,1,2,2,3,3,4,4,5,5,6,6,9,9,10,10,11,11,12,12,14,14,15,15,16,16,17,17,19,19,20,20,21,21,22,22,23,23,24,24,27,27,28,28,31,31,32,32,33,33,34,34,36,36,37,37,38,38,40,40],"right_children":[2,4,6,8,10,12,14,-1,-1,16,18,20,22,-1,24,26,28,30,-1,32,34,36,38,40,42,-1,-1,44,46,-1,-1,48,50,52,54,-1,56,58,60,-1,62,-1,-1,-1,-1,-1,-1,-1,-1,-1,-1,-1,-1,-1,-1,-1,-1,-1,-1,-1,-1,-1,-1],"split_conditions":[-1.5044284E0,-8.339251E-1,1.629944E0,-1.9726076E0,6.0355437E-1,6.3576674E-1,1.4902625E0,2.8756956E-2,-3.26015E-2,-1.3727791E0,1.4928639E0,-1.7358938E-1,8.907816E-2,1.3431257E-2,1.2586863E0,-1.5928746E0,5.6691617E-2,-7.648287E-1,2.652526E-2,1.2370212E0,4.4068836E-2,8.947033E-2,-1.0991502E0,1.7365632E0,2.4250438E0,2.4204914E-2,-2.6006438E-2,-1.5006764E0,-1.9291766E0,-2.6089558E-2,-5.1121316E-3,-6.949168E-1,7.856442E-1,-1.1828467E-1,-9.6120095E-1,3.5037924E-2,-2.9465005E-2,1.4392538E0,-5.36727E-1,-3.5168607E-2,1.7877784E0,-2.4468543E-2,2.1982891E-2,3.3038672E-2,4.2406074E-3,-2.8039025E-2,2.8654084E-2,9.955009E-3,-3.657399E-3,-2.4149435E-2,7.423932E-3,2.1476587E-2,-2.162894E-3,6.467019E-3,-2.0462984E-2,-1.3647493E-2,2.8982531E-2,3.419098E-2,-1.3467471E-2,-1.111639E-2,4.3987907E-3,2.3833657E-2,-2.9074911E-2],"split_indices":[3,10,3,5,14,7,6,0,0,12,12,7,3,0,12,2,14,10,0,14,5,12,12,6,7,0,0,4,0,0,0,8,0,10,11,0,0,0,11,0,4,0,0,0,0,0,0,0,0,0,0,0,0,0,0,0,0,0,0,0,0,0,0],"split_type":[0,0,0,0,0,0,0,0,0,0,0,0,0,0,0,0,0,0,0,0,0,0,0,0,0,0,0,0,0,0,0,0,0,0,0,0,0,0,0,0,0,0,0,0,0,0,0,0,0,0,0,0,0,0,0,0,0,0,0,0,0,0,0],"sum_hessian":[7.4789215E2,6.483291E1,6.830592E2,1.1729665E1,5.310324E1,6.5790204E2,2.5157179E1,2.994371E0,8.735294E0,4.7860386E1,5.242856E0,5.0700613E2,1.5089592E2,1.999356E0,2.3157822E1,3.7440977E0,4.4116287E1,2.9973042E0,2.2455516E0,2.71847E2,2.3515915E2,1.1997156E1,1.3889876E2,2.0161139E1,2.9966836E0,1.7455114E0,1.9985863E0,2.7908047E1,1.620824E1,1.7487881E0,1.2485162E0,2.3787473E2,3.397226E1,1.1347759E2,1.2168155E2,7.997854E0,3.9993024E0,9.234728E0,1.2966403E2,1.5178381E1,4.9827576E0,1.7470047E0,1.2496787E0,2.6660229E1,1.2478184E0,2.4982796E0,1.370996E1,1.3594566E2,1.0192906E2,2.1487143E1,1.2485118E1,2.098626E1,9.249133E1,1.2737481E1,1.0894407E2,1.2497525E0,2.7495499E0,7.985775E0,1.2489533E0,2.2482075E1,1.0718196E2,1.4998825E0,3.482875E0],"tree_param":{"num_deleted":"0","num_feature":"15","num_nodes":"63","size_leaf_vector":"0"}},{"base_weights":[5.4581757E-3,2.807763E-1,-2.1557385E-1,4.061444E-1,-6.064536E-1,2.1008448E-1,-3.8999453E-1,5.097998E-1,-7.801835E-1,2.0822938E-1,-9.088925E-1,7.735016E-2,1.6645561E0,-8.6577016E-1,-4.937802E-2,5.554392E-1,-1.3759364E0,2.0660345E-1,-1.0636952E0,-6.1923134E-1,1.1728776E0,-1.1456827E0,4.7032192E-1,-2.7262157E-1,4.9814802E-1,5.636502E-1,-1.0089234E0,2.3773511E-1,-9.359551E-1,1.0011914E0,4.278394E-1,-1.6014867E0,-2.1297893E-1,-9.491343E-1,1.3861234E0,6.814229E-1,-1.2250721E0,1.1654621E0,-1.2873518E0,1.3767065E0,2.2134028E-1,-1.5187649E0,-5.6049645E-1,9.802606E-1,-6.456223E-1,1.163883E0,-5.347286E-1,8.434014E-1,-1.0845553E0,1.0774106E0,-7.319793E-1,-7.5319606E-1,-1.3467714E0,1.3072935E-1,1.5441903E0,2.8811294E-1,-1.122571E0,1.2818503E0,-1.1719673E0,1.5731191E-3,8.4198964E-1,-1.2186849E0,-2.2725272E-1,-1.4829133E0,1.3216725E-1,-1.5448965E0,-1.9963434E-1,-1.6168653E0,-2.1184269E-1,1.5430187E0,-1.6089175E0,2.1073927E-1,1.2534199E0,1.3896677E0,-2.3108724E-1,7.386422E-2,-1.3673269E0,-1.3381133E0,1.0691553E0,1.2333186E0,-1.7452569E0,3.6759543E-1,1.4608183E0,-1.1859304E0,1.4995084E-2,-1.0383676E0,5.062061E-2,-6.380009E-1,-1.607629E0,3.2801312E-1,-1.0145806E0,1.7113776E0,2.0718898E-1,-6.597439E-1,1.1588433E0,-1.2941184E0,3.3760482E-1],"categories":[],"categories_nodes":[],"categories_segments":[],"categories_sizes":[],"default_left":[1,1,1,1,1,1,1,1,1,1,1,1,0,1,1,1,1,1,1,1,1,1,1,1,1,1,1,1,1,1,1,0,0,1,0,0,1,0,1,0,0,1,1,1,0,1,1,1,1,1,1,1,1,1,1,1,1,0,0,0,0,0,0,0,0,0,0,0,0,0,0,0,0,0,0,0,0,0,0,0,0,0,0,0,0,0,0,0,0,0,0,0,0,0,0,0,0],"id":6,"left_children":[1,3,5,7,9,11,13,15,17,19,21,23,-1,25,27,29,31,33,35,37,39,41,43,45,47,49,51,53,55,57,59,-1,-1,61,-1,-1,63,-1,65,-1,-1,67,69,71,-1,73,75,77,79,81,83,85,87,89,91,93,95,-1,-1,-1,-1,-1,-1,-1,-1,-1,-1,-1,-1,-1,-1,-1,-1,-1,-1,-1,-1,-1,-1,-1,-1,-1,-1,-1,-1,-1,-1,-1,-1,-1,-1,-1,-1,-1,-1,-1,-1],"loss_changes":[4.616486E1,3.7821465E1,3.1324135E1,3.6869015E1,1.0593223E1,2.361023E1,4.8387012E1,2.4290794E1,6.9977303E0,1.0500563E1,1.0656431E1,1.6884289E1,0E0,2.6069946E1,4.4824455E1,1.4792976E1,1.4287596E0,9.828258E0,6.18075E0,1.0140178E1,8.5888195E-1,4.9848557E0,3.6195521E0,2.42435E1,2.9325245E1,8.767185E0,8.803558E0,1.8412899E1,1.0160942E1,3.737236E1,3.7036873E1,0E0,0E0,4.5227742E-1,0E0,0E0,6.401821E0,0E0,1.3016024E0,0E0,0E0,1.6754036E0,2.8930063E1,5.765357E-1,0E0,3.4692993E0,2.7331982E1,2.2727934E1,1.708102E1,1.9089136E0,1.3737478E0,1.5398861E1,7.7914505E0,2.838837E1,1.8780231E0,6.1232405E0,9.848507E0,0E0,0E0,0E0,0E0,0E0,0E0,0E0,0E0,0E0,0E0,0E0,0E0,0E0,0E0,0E0,0E0,0E0,0E0,0E0,0E0,0E0,0E0,0E0,0E0,0E0,0E0,0E0,0E0,0E0,0E0,0E0,0E0,0E0,0E0,0E0,0E0,0E0,0E0,0E0,0E0],"parents":[2147483647,0,0,1,1,2,2,3,3,4,4,5,5,6,6,7,7,8,8,9,9,10,10,11,11,13,13,14,14,15,15,16,16,17,17,18,18,19,19,20,20,21,21,22,22,23,23,24,24,25,25,26,26,27,27,28,28,29,29,30,30,33,33,36,36,38,38,41,41,42,42,43,43,45,45,46,46,47,47,48,48,49,49,50,50,51,51,52,52,53,53,54,54,55,55,56,56],"right_children":[2,4,6,8,10,12,14,16,18,20,22,24,-1,26,28,30,32,34,36,38,40,42,44,46,48,50,52,54,56,58,60,-1,-1,62,-1,-1,64,-1,66,-1,-1,68,70,72,-1,74,76,78,80,82,84,86,88,90,92,94,96,-1,-1,-1,-1,-1,-1,-1,-1,-1,-1,-1,-1,-1,-1,-1,-1,-1,-1,-1,-1,-1,-1,-1,-1,-1,-1,-1,-1,-1,-1,-1,-1,-1,-1,-1,-1,-1,-1,-1,-1],"split_conditions":[-1.7358938E-1,1.3978996E0,4.4068836E-2,1.906497E0,-1.20122E0,1.0920897E0,6.1769485E-1,1.233463E0,-1.397227E0,-6.772841E-1,2.6851153E0,1.23151526E-1,3.3291124E-2,-1.1473923E0,1.5261172E0,-5.325941E-1,1.311549E0,-7.586519E-1,-1.4614558E0,-1.0519912E0,9.4907266E-1,4.1509822E-1,-7.5677526E-1,-1.5487359E0,-2.5780755E-1,-8.2285434E-1,2.0341322E-1,2.3707204E0,-7.645735E-1,-7.7888346E-1,2.4567123E-1,-3.2029733E-2,-4.2595784E-3,-1.7035317E0,2.7722469E-2,1.3628458E-2,4.483201E-1,2.3309242E-2,-1.1910918E0,2.753413E-2,4.426806E-3,1.3615992E0,6.0322535E-1,-8.7281144E-1,-1.2912446E-2,-4.4932563E-2,-1.7146817E-1,-1.2969797E0,-1.1847576E-1,-1.4483635E0,9.8238504E-1,2.4305198E-1,-4.118684E-1,2.2302825E0,1.8731531E0,1.5212495E0,1.2551868E0,2.5637006E-2,-2.3439344E-2,3.146238E-5,1.6839793E-2,-2.4373697E-2,-4.5450544E-3,-2.9658264E-2,2.643345E-3,-3.0897928E-2,-3.992687E-3,-3.2337304E-2,-4.2368537E-3,3.0860374E-2,-3.217835E-2,4.2147855E-3,2.5068397E-2,2.7793355E-2,-4.6217446E-3,1.4772844E-3,-2.7346537E-2,-2.6762266E-2,2.1383107E-2,2.466637E-2,-3.4905136E-2,7.3519084E-3,2.9216366E-2,-2.3718607E-2,2.9990167E-4,-2.0767352E-2,1.0124122E-3,-1.2760018E-2,-3.215258E-2,6.5602623E-3,-2.0291612E-2,3.422755E-2,4.1437796E-3,-1.3194878E-2,2.3176866E-2,-2.5882367E-2,6.752096E-3],"split_indices":[7,9,5,13,12,9,7,0,0,10,9,7,0,11,6,9,13,10,9,2,2,5,4,9,9,13,2,7,13,5,9,0,0,0,0,0,0,0,13,0,0,12,4,0,0,3,13,13,6,13,9,13,13,7,10,4,12,0,0,0,0,0,0,0,0,0,0,0,0,0,0,0,0,0,0,0,0,0,0,0,0,0,0,0,0,0,0,0,0,0,0,0,0,0,0,0,0],"split_type":[0,0,0,0,0,0,0,0,0,0,0,0,0,0,0,0,0,0,0,0,0,0,0,0,0,0,0,0,0,0,0,0,0,0,0,0,0,0,0,0,0,0,0,0,0,0,0,0,0,0,0,0,0,0,0,0,0,0,0,0,0,0,0,0,0,0,0,0,0,0,0,0,0,0,0,0,0,0,0,0,0,0,0,0,0,0,0,0,0,0,0,0,0,0,0,0,0],"sum_hessian":[7.566206E2,3.3681393E2,4.1980667E2,2.9558865E2,4.1225285E1,1.2196277E2,2.978439E2,2.7236136E2,2.3227293E1,1.1245272E1,2.9980013E1,1.1272841E2,9.234355E0,1.23623665E2,1.7422023E2,2.666141E2,5.7472615E0,5.2445283E0,1.7982763E1,6.2457967E0,4.9994755E0,2.5731607E1,4.2484055E0,6.1735767E1,5.0992645E1,1.09862175E1,1.1263745E2,1.3215456E2,4.2065678E1,5.7811455E1,2.0880264E2,4.497844E0,1.2494173E0,2.7476246E0,2.496904E0,1.2493905E0,1.6733374E1,1.498525E0,4.747272E0,3.7494762E0,1.2499992E0,1.47393E1,1.0992308E1,2.9993963E0,1.2490093E0,8.995348E0,5.2740417E1,4.2244484E1,8.748164E0,7.9873815E0,2.9988365E0,6.594844E1,4.6689007E1,1.2316661E2,8.987948E0,5.4928155E0,3.6572865E1,5.156242E1,6.2490354E0,1.0339086E2,1.0541177E2,1.4995037E0,1.2481209E0,1.3984145E1,2.7492287E0,3.4985833E0,1.2486886E0,1.3489588E1,1.2497123E0,3.4994268E0,7.4928813E0,1.2498662E0,1.7495301E0,7.7454915E0,1.2498559E0,3.0995413E1,2.1745005E1,3.4996092E0,3.8744873E1,1.7482548E0,6.999909E0,3.488243E0,4.4991384E0,1.4997584E0,1.4990782E0,4.8463245E1,1.7485197E1,1.348769E1,3.320132E1,1.0567697E2,1.7489634E1,7.7400684E0,1.2478806E0,2.745949E0,2.7468665E0,3.2829628E1,3.743235E0],"tree_param":{"num_deleted":"0","num_feature":"15","num_nodes":"97","size_leaf_vector":"0"}},{"base_weights":[1.3615448E-2,7.310129E-1,-5.893601E-2,-1.0738763E0,1.0277879E0,-1.8962964E-2,-1.2119375E0,1.1918899E0,-1.6798887E0,1.3899448E0,5.724465E-1,2.6665673E-2,-7.786066E-1,-1.5116417E0,-5.6448355E-2,1.7298955E0,3.793664E-1,-7.1207446E-1,8.973156E-1,1.1179907E0,-3.874519E-3,9.2524855E-4,-1.2440408E0,-1.6883401E0,-7.9485655E-1,7.5312835E-1,-1.2142764E0,-9.324252E-1,1.3992006E0,1.1457384E0,-1.5388652E0,1.2383786E0,-5.7012126E-2,1.4778606E0,-1.2817148E0,2.3182672E-1,-1.6461222E-1,-1.5294745E0,5.997529E-1,-1.4139999E0,7.4925447E-1,6.808704E-1,-1.3924867E0,2.9283354E-2,1.1749055E0,1.9706024E-1,-1.3916404E0,-7.0155454E-1,1.4375681E0,-1.1326998E0,1.345491E0,1.6896257E0,3.7882122E-1,-7.071103E-1,3.5018227E-1,-5.554097E-1,1.4380653E-1,1.3449866E0,-2.4146421E-1,-1.6968162E0,-7.916965E-1],"categories":[],"categories_nodes":[],"categories_segments":[],"categories_sizes":[],"default_left":[1,1,1,1,1,1,1,0,0,1,1,1,1,1,1,0,1,1,1,1,1,1,1,0,1,1,0,1,0,0,0,1,1,1,0,1,1,0,1,1,0,0,0,0,0,0,0,0,0,0,0,0,0,0,0,0,0,0,0,0,0],"id":7,"left_children":[1,3,5,7,9,11,13,-1,-1,15,17,19,21,23,25,-1,27,29,31,33,35,37,39,-1,41,43,-1,45,-1,-1,-1,47,49,51,-1,53,55,-1,57,59,-1,-1,-1,-1,-1,-1,-1,-1,-1,-1,-1,-1,-1,-1,-1,-1,-1,-1,-1,-1,-1],"loss_changes":[3.9066563E1,3.8028286E1,3.1401478E1,1.6039627E1,9.051033E0,2.289706E1,7.820778E0,0E0,0E0,1.052914E1,1.2387132E1,2.0787195E1,1.3581463E1,9.491005E-1,6.295577E0,0E0,1.3982333E1,1.1348569E1,7.528244E0,1.65565E1,2.305711E1,1.4657119E1,8.9995E0,0E0,5.769661E0,1.1854701E0,0E0,2.7353678E0,0E0,0E0,0E0,7.548113E0,1.2067378E1,2.9042625E0,0E0,2.7669903E1,4.36899E1,0E0,7.530585E0,2.5184174E0,0E0,0E0,0E0,0E0,0E0,0E0,0E0,0E0,0E0,0E0,0E0,0E0,0E0,0E0,0E0,0E0,0E0,0E0,0E0,0E0,0E0],"parents":[2147483647,0,0,1,1,2,2,3,3,4,4,5,5,6,6,9,9,10,10,11,11,12,12,13,13,14,14,16,16,17,17,18,18,19,19,20,20,21,21,22,22,24,24,25,25,27,27,31,31,32,32,33,33,35,35,36,36,38,38,39,39],"right_children":[2,4,6,8,10,12,14,-1,-1,16,18,20,22,24,26,-1,28,30,32,34,36,38,40,-1,42,44,-1,46,-1,-1,-1,48,50,52,-1,54,56,-1,58,60,-1,-1,-1,-1,-1,-1,-1,-1,-1,-1,-1,-1,-1,-1,-1,-1,-1,-1,-1,-1,-1],"split_conditions":[-1.5033994E0,-8.4091675E-1,1.6559055E0,-1.9726076E0,3.3572454E-3,1.5641054E0,1.2415755E0,2.3837797E-2,-3.3597775E-2,-1.5928746E0,-1.9331183E0,-1.7208776E0,-8.0311704E-1,1.7919569E0,2.4039412E0,3.4597907E-2,-4.4252703E-1,-1.9647944E0,6.0355437E-1,1.0957446E0,-1.7881653E-1,-9.262908E-1,1.4617813E0,-3.3766802E-2,1.8002229E0,1.6689167E0,-2.4285529E-2,-1.5610232E0,2.798401E-2,2.2914767E-2,-3.0777304E-2,3.717289E-2,1.4928639E0,9.318301E-1,-2.5634296E-2,-1.1213908E0,1.8300194E-1,-3.058949E-2,-4.8882592E-1,4.4384277E-1,1.4985089E-2,1.36174075E-2,-2.7849734E-2,5.856671E-4,2.349811E-2,3.941205E-3,-2.7832808E-2,-1.4031091E-2,2.875136E-2,-2.2653997E-2,2.690982E-2,3.3792514E-2,7.576424E-3,-1.4142205E-2,7.003645E-3,-1.11081945E-2,2.8761306E-3,2.689973E-2,-4.8292843E-3,-3.393632E-2,-1.583393E-2],"split_indices":[3,10,3,5,14,9,12,0,0,2,4,9,6,6,11,0,14,1,14,5,7,6,6,0,4,12,0,6,0,0,0,14,12,4,0,7,10,0,12,1,0,0,0,0,0,0,0,0,0,0,0,0,0,0,0,0,0,0,0,0,0],"split_type":[0,0,0,0,0,0,0,0,0,0,0,0,0,0,0,0,0,0,0,0,0,0,0,0,0,0,0,0,0,0,0,0,0,0,0,0,0,0,0,0,0,0,0,0,0,0,0,0,0,0,0,0,0,0,0,0,0,0,0,0,0],"sum_hessian":[7.487561E2,6.793463E1,6.808215E2,9.223263E0,5.8711365E1,6.589916E2,2.1829922E1,1.7423122E0,7.4809504E0,3.1558615E1,2.7152752E1,6.2256177E2,3.6429802E1,1.70892E1,4.740724E0,2.3082169E1,8.476446E0,5.240423E0,2.1912329E1,1.5978482E1,6.0658325E2,1.39925E1,2.2437302E1,1.2622201E1,4.466997E0,2.9956434E0,1.7450807E0,3.7450168E0,4.731429E0,1.4951133E0,3.74531E0,1.592376E1,5.988568E0,1.4228819E1,1.7496637E0,2.457622E2,3.6082104E2,3.4981935E0,1.0494307E1,2.0942274E1,1.4950279E0,1.2474319E0,3.2195654E0,1.4966142E0,1.499029E0,1.2475125E0,2.4975042E0,1.2479318E0,1.4675828E1,3.4980311E0,2.4905367E0,1.1479549E1,2.7492697E0,2.6954283E1,2.1880794E2,1.5880208E2,2.0201898E2,5.2470717E0,5.247235E0,1.3211441E1,7.730834E0],"tree_param":{"num_deleted":"0","num_feature":"15","num_nodes":"61","size_leaf_vector":"0"}},{"base_weights":[-3.9390502E-3,5.3629927E-2,-9.175662E-1,6.6971225E-1,-7.758896E-3,6.8971527E-1,-1.1168185E0,-1.1300815E0,9.856099E-1,1.0720084E0,-4.8370004E-2,1.4212899E0,-5.5823284E-1,-1.2501836E0,1.3058324E-1,1.1135292E0,-1.6567814E0,1.1373175E0,-5.784532E-1,1.3870448E0,-9.3235946E-1,-1.5420754E-1,3.6154938E-1,-1.3883864E0,-5.053866E-1,1.0506525E0,-1.1205761E0,1.6724867E0,9.41615E-1,-1.2934564E0,1.0337771E0,1.5089158E0,6.1867565E-1,-2.1651742E-1,-1.2036031E0,1.037791E-1,-4.6599993E-1,1.169635E0,1.59369E-1,-9.915779E-1,-1.686651E0,8.647325E-1,-1.4170165E0,-1.4711385E0,1.2016213E0,6.020565E-1,1.5894532E0,-6.773753E-1,1.3263812E0,-8.229013E-1,2.0172627E-1,-2.2327432E-1,-1.1611466E0,1.3593758E0,-8.787151E-1,2.3260288E-2,1.5767276E0,-1.5212668E0,2.228169E-1,2.2783986E-1,1.1169363E0],"categories":[],"categories_nodes":[],"categories_segments":[],"categories_sizes":[],"default_left":[1,1,1,1,1,1,1,1,1,1,1,0,0,1,1,0,0,1,1,1,1,1,1,1,1,0,0,0,1,0,0,1,1,0,0,1,1,1,1,1,0,1,0,0,0,0,0,0,0,0,0,0,0,0,0,0,0,0,0,0,0],"id":8,"left_children":[1,3,5,7,9,11,13,15,17,19,21,-1,-1,23,25,-1,-1,27,29,31,33,35,37,39,41,-1,-1,-1,43,-1,-1,45,47,-1,-1,49,51,53,55,57,-1,59,-1,-1,-1,-1,-1,-1,-1,-1,-1,-1,-1,-1,-1,-1,-1,-1,-1,-1,-1],"loss_changes":[3.9219505E1,2.6537483E1,1.4925587E1,3.7262512E1,2.807017E1,5.8085985E0,6.7688828E0,1.3613712E1,1.3618435E1,1.5945131E1,2.681322E1,0E0,0E0,3.0004425E0,6.634518E0,0E0,0E0,3.675354E0,7.668563E0,9.8181915E-1,4.6746612E-1,3.9534397E1,2.0539934E1,1.8503151E0,1.0220452E1,0E0,0E0,0E0,2.623013E1,0E0,0E0,2.8167343E-1,5.0214024E0,0E0,0E0,2.462181E1,3.727427E1,1.1000408E1,1.9762201E1,1.0115722E1,0E0,3.0743647E-1,0E0,0E0,0E0,0E0,0E0,0E0,0E0,0E0,0E0,0E0,0E0,0E0,0E0,0E0,0E0,0E0,0E0,0E0,0E0],"parents":[2147483647,0,0,1,1,2,2,3,3,4,4,5,5,6,6,7,7,8,8,9,9,10,10,13,13,14,14,17,17,18,18,19,19,20,20,21,21,22,22,23,23,24,24,28,28,31,31,32,32,35,35,36,36,37,37,38,38,39,39,41,41],"right_children":[2,4,6,8,10,12,14,16,18,20,22,-1,-1,24,26,-1,-1,28,30,32,34,36,38,40,42,-1,-1,-1,44,-1,-1,46,48,-1,-1,50,52,54,56,58,-1,60,-1,-1,-1,-1,-1,-1,-1,-1,-1,-1,-1,-1,-1,-1,-1,-1,-1,-1,-1],"split_conditions":[1.5127E0,-1.5035172E0,-9.223294E-1,-8.4091675E-1,-1.5487359E0,8.45639E-1,1.2586863E0,-2.6195478E-1,6.0161364E-1,1.1047977E0,6.297287E-1,2.8425798E-2,-1.1164657E-2,1.7365632E0,1.7537642E0,2.2270584E-2,-3.3135626E-2,-1.9477259E0,1.4928639E0,1.4805675E0,1.0410462E-1,-1.7881653E-1,-8.2147557E-1,1.630435E0,1.7827978E0,2.101305E-2,-2.2411522E-2,3.344973E-2,-1.9478791E0,-2.5869127E-2,2.0675542E-2,-5.7317996E-1,1.7714223E0,-4.330348E-3,-2.4072062E-2,-1.1213908E0,1.7769216E-1,1.5271541E0,2.3702853E0,1.6114153E0,-3.3733018E-2,9.1006124E-1,-2.834033E-2,-2.942277E-2,2.4032425E-2,1.204113E-2,3.1789064E-2,-1.3547506E-2,2.6527623E-2,-1.6458025E-2,4.0345252E-3,-4.4654864E-3,-2.3222933E-2,2.7187517E-2,-1.7574301E-2,4.6520575E-4,3.1534553E-2,-3.0425336E-2,4.456338E-3,4.556797E-3,2.2338726E-2],"split_indices":[6,3,14,10,9,9,12,14,14,1,7,0,0,6,3,0,0,0,12,14,12,7,9,3,1,0,0,0,6,0,0,14,14,0,0,7,3,0,7,6,0,14,0,0,0,0,0,0,0,0,0,0,0,0,0,0,0,0,0,0,0],"split_type":[0,0,0,0,0,0,0,0,0,0,0,0,0,0,0,0,0,0,0,0,0,0,0,0,0,0,0,0,0,0,0,0,0,0,0,0,0,0,0,0,0,0,0,0,0,0,0,0,0,0,0,0,0,0,0,0,0,0,0,0,0],"sum_hessian":[7.4373083E2,7.0053064E2,4.3200157E1,6.2580425E1,6.3795026E2,4.4932837E0,3.8706875E1,8.959164E0,5.362126E1,2.220363E1,6.1574664E2,2.745128E0,1.748156E0,3.496625E1,3.7406218E0,1.4915156E0,7.4676485E0,4.912881E1,4.492447E0,1.9453947E1,2.7496843E0,4.8988617E2,1.25860435E2,2.876464E1,6.201611E0,2.2478614E0,1.4927604E0,1.1134446E1,3.7994366E1,3.2491937E0,1.2432532E0,1.5958914E1,3.495032E0,1.2497352E0,1.4999492E0,2.6843878E2,2.2144739E2,2.4230309E1,1.0163013E2,1.4198967E1,1.4565674E1,2.4982905E0,3.7033207E0,3.242956E0,3.475141E1,1.9930019E0,1.3965913E1,1.2495449E0,2.2454872E0,2.4953325E1,2.4348546E2,1.6511505E2,5.633233E1,2.2483952E1,1.7463568E0,9.365305E1,7.977076E0,9.710704E0,4.488263E0,1.2485957E0,1.2496947E0],"tree_param":{"num_deleted":"0","num_feature":"15","num_nodes":"61","size_leaf_vector":"0"}},{"base_weights":[-3.3931285E-2,2.320242E-1,-2.0241842E-1,1.5603813E0,1.79139E-1,7.378119E-1,-2.8967097E-1,-1.2834256E0,2.3688425E-1,1.0164591E0,-3.4498278E-2,-2.1177141E-1,-9.3695515E-1,9.9402165E-1,-1.6753676E0,8.454201E-1,1.12339914E-1,1.7106516E0,7.206603E-1,-1.1820904E0,7.3592424E-1,-4.1751948E-1,2.1063374E-1,5.515394E-1,-1.0938225E0,-1.3560956E0,1.0143592E0,-1.5762448E-1,5.6627584E-1,-2.9685447E-1,9.7784823E-1,-1.4320859E0,-2.3928499E-1,1.2964524E0,-1.1462533E0,2.5083613E-2,-7.207246E-1,1.0623514E-1,1.5543176E0,-1.096227E0,1.3951113E0,-1.2681084E0,4.212795E-2,1.203255E0,-5.997545E-2,9.593604E-2,-1.0963308E0,6.3968706E-1,-1.3417903E0,1.0648699E0,-9.880676E-1,1.6256932E0,5.831257E-1,1.4867047E0,5.139465E-1,1.4717181E-1,-1.3812925E0,6.456336E-1,-7.984888E-1,3.004269E-1,-9.162992E-1,-2.3750563E-1,-1.4065764E0,1.4203731E0,-1.3541247E0],"categories":[],"categories_nodes":[],"categories_segments":[],"categories_sizes":[],"default_left":[1,1,1,0,1,1,1,1,1,1,1,1,1,0,0,1,1,0,1,1,1,1,1,1,1,0,1,1,1,1,1,0,0,1,0,1,1,1,0,0,0,1,1,0,0,0,0,0,0,0,0,0,0,0,0,0,0,0,0,0,0,0,0,0,0],"id":9,"left_children":[1,3,5,-1,7,9,11,13,15,17,19,21,23,-1,-1,25,27,-1,29,31,33,35,37,39,41,-1,43,45,47,49,51,-1,-1,53,-1,55,57,59,-1,-1,-1,61,63,-1,-1,-1,-1,-1,-1,-1,-1,-1,-1,-1,-1,-1,-1,-1,-1,-1,-1,-1,-1,-1,-1],"loss_changes":[3.394956E1,2.0366173E1,3.8254265E1,0E0,2.426968E1,8.569651E0,2.1233364E1,1.1425261E1,2.0658562E1,4.758322E0,1.1021595E1,3.3171837E1,1.119603E1,0E0,0E0,1.862098E1,2.8086514E1,0E0,6.096386E0,8.34815E-1,9.384216E0,3.4416203E1,1.7419075E1,8.465404E0,8.245022E0,0E0,8.927498E0,3.439036E1,1.2823162E1,5.987646E0,3.6404266E0,0E0,0E0,1.6453743E-1,0E0,1.8261606E1,1.668187E1,2.3584764E1,0E0,0E0,0E0,4.789669E0,1.437719E1,0E0,0E0,0E0,0E0,0E0,0E0,0E0,0E0,0E0,0E0,0E0,0E0,0E0,0E0,0E0,0E0,0E0,0E0,0E0,0E0,0E0,0E0],"parents":[2147483647,0,0,1,1,2,2,4,4,5,5,6,6,7,7,8,8,9,9,10,10,11,11,12,12,15,15,16,16,18,18,19,19,20,20,21,21,22,22,23,23,24,24,26,26,27,27,28,28,29,29,30,30,33,33,35,35,36,36,37,37,41,41,42,42],"right_children":[2,4,6,-1,8,10,12,14,16,18,20,22,24,-1,-1,26,28,-1,30,32,34,36,38,40,42,-1,44,46,48,50,52,-1,-1,54,-1,56,58,60,-1,-1,-1,62,64,-1,-1,-1,-1,-1,-1,-1,-1,-1,-1,-1,-1,-1,-1,-1,-1,-1,-1,-1,-1,-1,-1],"split_conditions":[-3.3150294E-1,-1.9682722E0,-1.5069818E0,3.1207625E-2,-1.9461808E0,-5.835699E-1,1.4823644E0,-1.974844E0,-1.5044284E0,2.8959256E-2,1.8451226E-1,6.3576674E-1,-9.223294E-1,1.9880433E-2,-3.350735E-2,-8.403908E-1,-6.174239E-1,3.4213033E-2,5.613061E-1,-1.8033851E0,1.1599474E0,4.4068836E-2,2.3707204E0,-1.1988969E0,1.0492704E0,-2.712191E-2,5.1327014E-1,-7.780988E-1,-6.941976E-1,-1.7076192E0,8.12688E-1,-2.8641718E-2,-4.7857E-3,-9.74252E-1,-2.2925066E-2,5.289618E-1,-1.1477044E0,2.0883956E0,3.1086352E-2,-2.192454E-2,2.7902225E-2,1.3176723E0,2.149473E0,2.4065102E-2,-1.1995089E-3,1.9187207E-3,-2.1926615E-2,1.2793741E-2,-2.6835807E-2,2.1297397E-2,-1.9761352E-2,3.2513864E-2,1.1662514E-2,2.9734094E-2,1.0278929E-2,2.9434361E-3,-2.762585E-2,1.2912671E-2,-1.5969776E-2,6.008538E-3,-1.8325984E-2,-4.7501125E-3,-2.8131528E-2,2.840746E-2,-2.7082494E-2],"split_indices":[7,6,14,0,6,8,6,4,3,5,10,7,14,0,0,10,6,0,6,14,0,5,7,11,12,0,14,5,10,12,2,0,0,11,0,7,11,7,0,0,0,10,14,0,0,0,0,0,0,0,0,0,0,0,0,0,0,0,0,0,0,0,0,0,0],"split_type":[0,0,0,0,0,0,0,0,0,0,0,0,0,0,0,0,0,0,0,0,0,0,0,0,0,0,0,0,0,0,0,0,0,0,0,0,0,0,0,0,0,0,0,0,0,0,0,0,0,0,0,0,0,0,0,0,0,0,0,0,0,0,0,0,0],"sum_hessian":[7.5558417E2,2.9288718E2,4.6269696E2,1.0122698E1,2.8276447E2,3.865849E1,4.2403848E2,9.933913E0,2.7283057E2,2.8176403E1,1.0482086E1,3.7967267E2,4.4365803E1,1.2330306E0,8.700883E0,4.5368336E1,2.2746223E2,6.989649E0,2.1186754E1,3.9957814E0,6.4863048E0,2.553208E2,1.24351875E2,3.989927E0,4.0375877E1,2.7325273E0,4.2635807E1,1.4304399E2,8.441824E1,4.243586E0,1.6943169E1,2.7481232E0,1.2476583E0,5.237676E0,1.2486283E0,1.04172485E2,1.5114832E2,1.1638808E2,7.9638023E0,1.2495835E0,2.7403438E0,3.4904266E1,5.4716115E0,3.6158253E1,6.4775543E0,1.1332955E2,2.9714437E1,8.193077E1,2.4874725E0,1.2467822E0,2.9968038E0,5.2340775E0,1.1709091E1,3.489371E0,1.7483052E0,9.66754E1,7.497085E0,7.745922E0,1.4340239E2,9.84058E1,1.7982271E1,4.455757E0,3.0448507E1,2.7448685E0,2.7267432E0],"tree_param":{"num_deleted":"0","num_feature":"15","num_nodes":"65","size_leaf_vector":"0"}},{"base_weights":[-1.7937407E-2,2.0407973E-1,-2.3783873E-1,2.8367946E-1,-7.3960626E-1,8.7476814E-1,-3.101385E-1,2.3274839E-1,1.2203783E0,1.2779452E0,-1.0857556E0,-6.661102E-1,1.1146563E0,5.8169365E-1,-4.232956E-1,1.5650699E0,1.9506867E-1,7.9889946E-2,1.5802848E0,-7.624106E-1,-1.6165977E0,-3.444711E-2,-1.0716329E0,1.5280867E0,5.7479584E-1,1.4880254E0,3.283056E-1,-7.413573E-1,-6.5665364E-2,-1.124466E0,2.487168E-1,1.0532293E0,-9.999542E-1,3.642226E-1,1.7043527E0,-1.0195832E0,1.2106766E0,-6.749341E-1,8.1737113E-1,-9.3633395E-1,8.481715E-1,-8.892594E-1,-1.0383686E-1,2.8428018E-1,-8.1239927E-1,8.879252E-1,-1.5807899E0,9.326595E-1,1.6758165E-1,2.634311E-1,-1.1440122E0,1.4651384E0,4.7629595E-2,-1.9717908E-1,-1.6359804E0,1.2139952E0,1.7001544E-1,-4.7391114E-1,-1.2254984E0,5.193757E-1,-1.288532E0,4.5605224E-1,-1.0783325E0,8.1164575E-1,-1.0312117E0],"categories":[],"categories_nodes":[],"categories_segments":[],"categories_sizes":[],"default_left":[1,1,1,1,1,1,1,1,1,0,1,1,1,1,1,0,1,1,1,1,0,0,0,0,1,0,1,1,1,1,1,0,0,0,0,1,0,0,1,1,1,1,1,1,1,0,0,0,0,0,0,0,0,0,0,0,0,0,0,0,0,0,0,0,0],"id":10,"left_children":[1,3,5,7,9,11,13,15,17,-1,19,21,23,25,27,-1,29,31,33,35,-1,-1,-1,-1,37,-1,39,41,43,45,47,-1,-1,-1,-1,49,-1,-1,51,53,55,57,59,61,63,-1,-1,-1,-1,-1,-1,-1,-1,-1,-1,-1,-1,-1,-1,-1,-1,-1,-1,-1,-1],"loss_changes":[3.6466236E1,2.8132175E1,3.0453844E1,1.6104528E1,2.1774834E1,9.301899E0,3.5875668E1,1.6112875E1,7.0485744E0,0E0,3.1372528E0,9.2246413E-1,3.6772614E0,8.737505E0,3.565499E1,0E0,2.2875523E1,6.567172E0,1.3758163E0,1.0222757E1,0E0,0E0,0E0,0E0,3.72111E0,0E0,2.227888E1,1.5563164E1,3.912735E1,1.3021525E1,1.690973E1,0E0,0E0,0E0,0E0,2.8898354E0,0E0,0E0,4.5213075E0,4.846546E0,5.6691933E0,1.8222069E1,2.4589224E1,2.4387325E1,1.7807602E1,0E0,0E0,0E0,0E0,0E0,0E0,0E0,0E0,0E0,0E0,0E0,0E0,0E0,0E0,0E0,0E0,0E0,0E0,0E0,0E0],"parents":[2147483647,0,0,1,1,2,2,3,3,4,4,5,5,6,6,7,7,8,8,10,10,11,11,12,12,13,13,14,14,16,16,17,17,18,18,19,19,24,24,26,26,27,27,28,28,29,29,30,30,35,35,38,38,39,39,40,40,41,41,42,42,43,43,44,44],"right_children":[2,4,6,8,10,12,14,16,18,-1,20,22,24,26,28,-1,30,32,34,36,-1,-1,-1,-1,38,-1,40,42,44,46,48,-1,-1,-1,-1,50,-1,-1,52,54,56,58,60,62,64,-1,-1,-1,-1,-1,-1,-1,-1,-1,-1,-1,-1,-1,-1,-1,-1,-1,-1,-1,-1],"split_conditions":[4.4180255E-2,1.0969362E0,-1.5767083E0,7.959889E-3,-1.6725109E0,5.7248884E-1,-3.3150294E-1,-1.9722446E0,-1.0301123E0,2.5558902E-2,-2.2109954E-1,-1.3376589E0,8.322282E-1,2.5506282E-1,7.4736154E-1,3.1301398E-2,-1.9461808E0,6.493683E-2,-2.3679028E-4,-4.0654325E-1,-3.233195E-2,-6.889422E-4,-2.1432657E-2,3.0561732E-2,-1.8633797E0,2.9760508E-2,-5.2428657E-1,5.4589045E-1,1.4676285E0,-1.9695272E0,-1.5689545E0,2.1064587E-2,-1.9999083E-2,7.2844517E-3,3.4087054E-2,-1.3416528E0,2.421353E-2,-1.3498682E-2,-2.0773077E0,3.1231073E-1,9.7034824E-1,-2.5026715E-1,1.2745979E0,9.124731E-1,-9.223294E-1,1.7758504E-2,-3.1615797E-2,1.865319E-2,3.351633E-3,5.2686217E-3,-2.2880243E-2,2.9302768E-2,9.525919E-4,-3.9435816E-3,-3.271961E-2,2.4279904E-2,3.4003088E-3,-9.478223E-3,-2.4509968E-2,1.0387514E-2,-2.577064E-2,9.121045E-3,-2.156665E-2,1.6232915E-2,-2.0624233E-2],"split_indices":[5,14,14,1,9,6,7,5,9,0,4,11,9,1,7,0,6,3,5,0,0,0,0,0,11,0,7,11,6,6,6,0,0,0,0,1,0,0,14,1,12,11,12,9,14,0,0,0,0,0,0,0,0,0,0,0,0,0,0,0,0,0,0,0,0],"split_type":[0,0,0,0,0,0,0,0,0,0,0,0,0,0,0,0,0,0,0,0,0,0,0,0,0,0,0,0,0,0,0,0,0,0,0,0,0,0,0,0,0,0,0,0,0,0,0,0,0,0,0,0,0,0,0,0,0,0,0,0,0,0,0,0,0],"sum_hessian":[7.4493005E2,3.7071756E2,3.742125E2,3.4252502E2,2.8192528E1,2.215618E1,3.5205634E2,3.2604547E2,1.6479568E1,3.7344093E0,2.4458118E1,2.7453253E0,1.9410854E1,3.9173687E1,3.1288263E2,7.8524833E0,3.18193E2,4.246149E0,1.2233419E1,1.671373E1,7.7443886E0,1.497573E0,1.2477523E0,9.955961E0,9.454892E0,7.4944882E0,3.16792E1,1.650346E2,1.4784802E2,1.16515E1,3.0654147E2,2.2461674E0,1.9999816E0,1.4969182E0,1.0736502E1,1.5213989E1,1.4997401E0,1.2471743E0,8.207718E0,8.995471E0,2.268373E1,1.3363661E2,3.1398003E1,1.01092064E2,4.6755966E1,1.9788667E0,9.672633E0,3.1395191E1,2.751463E2,1.246273E0,1.3967716E1,3.9664125E0,4.2413054E0,4.9975452E0,3.9979258E0,1.4221797E1,8.461932E0,6.0863182E1,7.277343E1,2.0942652E1,1.0455351E1,9.036579E1,1.07262745E1,5.2298975E0,4.1526066E1],"tree_param":{"num_deleted":"0","num_feature":"15","num_nodes":"65","size_leaf_vector":"0"}},{"base_weights":[-4.576009E-3,2.721623E-1,-1.8041927E-1,3.6107475E-1,-7.7477837E-1,6.6072136E-1,-2.537278E-1,4.4831038E-1,-4.5750016E-1,-1.0791819E0,-4.4579875E-2,3.1626958E-1,1.3608209E0,1.4158645E-1,-3.9108887E-1,2.6269338E-1,8.352686E-1,-8.9158195E-1,1.1349359E0,-1.3118057E0,5.174491E-1,9.988549E-1,-1.0204308E0,1.6015095E0,-3.2486677E-2,1.5824515E0,-2.744216E-1,-3.0358088E-1,6.7651445E-1,-6.8343043E-1,-7.96924E-2,8.233375E-1,-5.1840108E-2,4.4965947E-1,1.2026734E0,-1.0096658E-1,-1.3714968E0,1.3401861E0,1.9721179E-1,1.9580452E-1,-1.538866E0,1.7528835E-1,1.2823429E0,-1.571134E0,4.171001E-1,-4.9870816E-1,1.6081467E0,1.0453174E0,-8.761218E-1,-1.354602E-1,-8.8066113E-1,1.0798222E-1,-9.569964E-1,1.07904E0,-1.4969321E0,1.9715188E-1,-7.324633E-1,9.404823E-1,-2.8419948E-1,-6.817402E-1,1.3648522E0,1.2314779E0,-9.7346705E-1,-1.7085059E0,-8.383679E-2,-2.0274232E-1,-1.6693845E0,7.469701E-1,-9.6667457E-1,3.9031124E-1,-7.9877526E-1,1.6464719E0,6.027635E-1,1.2819673E0,-1.5753081E0,3.021921E-1,-1.2686852E0,-5.167872E-1,-1.3556595E0,-5.6710935E-1,3.0851892E-1,-1.3698617E0,-1.8444629E-1],"categories":[],"categories_nodes":[],"categories_segments":[],"categories_sizes":[],"default_left":[1,1,1,1,1,1,1,1,1,1,1,1,1,1,1,1,1,1,1,1,0,1,0,0,1,0,0,1,1,1,1,1,1,1,1,1,1,0,0,0,1,0,0,0,1,1,0,1,1,1,1,1,1,0,0,0,0,0,0,0,0,0,0,0,0,0,0,0,0,0,0,0,0,0,0,0,0,0,0,0,0,0,0],"id":11,"left_children":[1,3,5,7,9,11,13,15,17,19,21,23,25,27,29,31,33,35,37,39,-1,41,-1,-1,43,-1,-1,45,47,49,51,53,55,57,59,61,63,-1,-1,-1,65,-1,-1,-1,67,69,-1,71,73,75,77,79,81,-1,-1,-1,-1,-1,-1,-1,-1,-1,-1,-1,-1,-1,-1,-1,-1,-1,-1,-1,-1,-1,-1,-1,-1,-1,-1,-1,-1,-1,-1],"loss_changes":[3.5807034E1,2.6892948E1,2.7910667E1,1.9071419E1,4.9969788E0,8.334415E0,2.2566824E1,1.696582E1,1.8942352E1,6.6126175E0,8.881289E0,1.15551605E1,4.668268E0,2.5837793E1,2.7977688E1,2.8814007E1,1.0383026E1,7.8079243E0,8.8977146E-1,5.17165E0,0E0,7.643771E-1,0E0,0E0,1.5296868E1,0E0,0E0,2.2974506E1,2.9088806E1,1.703164E1,2.4839632E1,3.6440033E1,1.8016708E1,1.4393263E1,1.2814915E1,1.1650514E1,5.4776917E0,0E0,0E0,0E0,1.8375797E0,0E0,0E0,0E0,8.559556E0,1.4903107E1,0E0,9.705914E0,1.708985E1,2.1800142E1,1.9436943E1,1.7051628E1,8.224268E0,0E0,0E0,0E0,0E0,0E0,0E0,0E0,0E0,0E0,0E0,0E0,0E0,0E0,0E0,0E0,0E0,0E0,0E0,0E0,0E0,0E0,0E0,0E0,0E0,0E0,0E0,0E0,0E0,0E0,0E0],"parents":[2147483647,0,0,1,1,2,2,3,3,4,4,5,5,6,6,7,7,8,8,9,9,10,10,11,11,12,12,13,13,14,14,15,15,16,16,17,17,18,18,19,19,21,21,24,24,27,27,28,28,29,29,30,30,31,31,32,32,33,33,34,34,35,35,36,36,40,40,44,44,45,45,47,47,48,48,49,49,50,50,51,51,52,52],"right_children":[2,4,6,8,10,12,14,16,18,20,22,24,26,28,30,32,34,36,38,40,-1,42,-1,-1,44,-1,-1,46,48,50,52,54,56,58,60,62,64,-1,-1,-1,66,-1,-1,-1,68,70,-1,72,74,76,78,80,82,-1,-1,-1,-1,-1,-1,-1,-1,-1,-1,-1,-1,-1,-1,-1,-1,-1,-1,-1,-1,-1,-1,-1,-1,-1,-1,-1,-1,-1,-1],"split_conditions":[-3.3150294E-1,1.938118E0,-1.5069818E0,1.6333578E0,-7.731044E-1,9.694853E-1,3.5567604E-2,2.7205312E-1,2.6851153E0,5.0380415E-1,-1.3527148E0,-2.1027179E-1,-1.5767047E0,-6.0583925E-1,7.4736154E-1,-5.325941E-1,-7.3772854E-1,-8.6518455E-1,-7.006445E-1,8.6878765E-1,1.0348981E-2,7.375375E-1,-2.0408615E-2,3.2030188E-2,-1.02803774E-1,3.1649027E-2,-5.488432E-3,1.1183836E0,-2.5780755E-1,-1.4625204E-1,1.630435E0,-7.804767E-1,1.9898791E0,6.290878E-1,-1.5588356E0,-6.8234944E-1,-5.226302E-2,2.6803723E-2,3.944236E-3,3.9160904E-3,-1.4992698E0,3.5057669E-3,2.5646858E-2,-3.142268E-2,8.326125E-1,-2.7506292E-1,3.216293E-2,-5.4764032E-2,-1.17689535E-1,1.1619638E0,1.7769216E-1,-4.51544E-1,9.582828E-1,2.15808E-2,-2.9938642E-2,3.9430377E-3,-1.4649265E-2,1.8809646E-2,-5.6839893E-3,-1.3634805E-2,2.7297042E-2,2.4629558E-2,-1.9469341E-2,-3.4170117E-2,-1.6767357E-3,-4.0548462E-3,-3.3387687E-2,1.4939402E-2,-1.9333491E-2,7.8062247E-3,-1.5975505E-2,3.2929435E-2,1.2055269E-2,2.5639346E-2,-3.1506162E-2,6.0438416E-3,-2.5373705E-2,-1.0335743E-2,-2.711319E-2,-1.13421865E-2,6.170378E-3,-2.7397234E-2,-3.6889256E-3],"split_indices":[7,13,14,9,10,5,5,9,9,1,1,4,14,8,7,9,10,4,10,12,0,14,0,0,1,0,0,9,9,7,3,3,8,9,11,7,1,0,0,0,9,0,0,0,5,5,0,5,3,1,3,11,14,0,0,0,0,0,0,0,0,0,0,0,0,0,0,0,0,0,0,0,0,0,0,0,0,0,0,0,0,0,0],"split_type":[0,0,0,0,0,0,0,0,0,0,0,0,0,0,0,0,0,0,0,0,0,0,0,0,0,0,0,0,0,0,0,0,0,0,0,0,0,0,0,0,0,0,0,0,0,0,0,0,0,0,0,0,0,0,0,0,0,0,0,0,0,0,0,0,0,0,0,0,0,0,0,0,0,0,0,0,0,0,0,0,0,0,0],"sum_hessian":[7.33814E2,2.8489877E2,4.4891525E2,2.6320126E2,2.1697512E1,3.5345764E1,4.135695E2,2.3826198E2,2.4939281E1,1.4976296E1,6.7212157E0,2.4663147E1,1.0682616E1,1.0663932E2,3.0693018E2,1.6215701E2,7.610497E1,1.9943108E1,4.9961734E0,1.3227488E1,1.7488096E0,3.236739E0,3.4844766E0,4.497363E0,2.0165785E1,9.436003E0,1.2466136E0,5.843891E1,4.8200405E1,1.5769247E2,1.4923772E2,5.769687E1,1.04460144E2,3.8217617E1,3.7887356E1,7.9902663E0,1.1952841E1,3.7468643E0,1.2493091E0,1.749435E0,1.1478052E1,1.2432569E0,1.9934819E0,3.995869E0,1.6169916E1,5.3697243E1,4.7416687E0,3.9212803E1,8.987603E0,4.2182556E1,1.1550991E2,1.2366085E2,2.557686E1,5.2451466E1,5.2454004E0,7.700118E1,2.7458963E1,2.2732204E1,1.5485412E1,2.7484527E0,3.51389E1,2.9989564E0,4.99131E0,9.214399E0,2.7384412E0,1.2486742E0,1.0229378E1,1.3428877E1,2.7410383E0,1.3474657E1,4.0222588E1,1.5473539E1,2.3739262E1,1.9953369E0,6.9922657E0,3.0959364E1,1.1223193E1,6.6587975E1,4.892194E1,2.7902212E1,9.575864E1,1.6164875E1,9.411984E0],"tree_param":{"num_deleted":"0","num_feature":"15","num_nodes":"83","size_leaf_vector":"0"}},{"base_weights":[1.431649E-2,2.9371968E-1,-1.6513994E-1,4.019059E-1,-4.3017972E-1,7.407919E-1,-2.4271572E-1,4.8859262E-1,-5.996391E-1,2.0980881E-1,-9.4713503E-1,3.4377518E-1,1.4485116E0,2.8738882E-2,-4.944287E-1,3.0269036E-1,9.478459E-1,2.186112E-1,-8.91012E-1,8.5012853E-1,-1.4014273E0,1.9035761E-1,-1.427765E0,1.4864291E0,1.4024322E-2,1.5683371E0,4.4145873E-1,-1.7131297E-1,4.9127904E-1,9.763787E-1,-5.607037E-1,8.341709E-1,3.2893147E-2,1.1831007E0,4.5834905E-1,-1.3404189E0,1.4324577E0,-1.1071863E0,5.1094925E-1,-7.3703593E-1,1.2331184E0,-1.2905171E0,1.0005966E0,2.1104781E-1,-1.6567124E0,1.4111092E0,-5.1448196E-1,1.1972718E0,-2.7505603E-1,1.6378556E0,1.8772E-1,5.1266454E-2,1.4861684E0,-1.1800247E0,-4.3859187E-1,1.0834925E0,-1.4532615E0,2.6309025E-1,-5.6336594E-1,-2.2873984E-1,1.2459291E0,-9.0952814E-1,1.2277187E0,3.4473115E-1,-1.3845643E0,1.4963573E0,1.2389476E-1,-8.1567776E-1,1.158487E0,1.5347155E0,-6.770986E-1,-3.6553007E-1,1.3483025E0,1.7788436E0,1.9036198E-1,-2.1514629E-1,7.6096284E-1,1.032175E0,-1.1470354E0,5.4453135E-1,-1.2912111E0,3.796754E-1,-5.7082874E-1],"categories":[],"categories_nodes":[],"categories_segments":[],"categories_sizes":[],"default_left":[1,1,1,1,1,1,1,1,1,1,1,1,1,1,1,1,1,1,1,1,0,1,1,0,1,0,0,1,1,1,1,1,1,1,1,0,0,1,0,0,1,0,0,0,0,0,1,1,1,1,1,1,0,1,1,0,0,0,0,0,0,0,0,0,0,0,0,0,0,0,0,0,0,0,0,0,0,0,0,0,0,0,0],"id":12,"left_children":[1,3,5,7,9,11,13,15,17,19,21,23,25,27,29,31,33,35,37,39,-1,41,43,-1,45,-1,-1,47,49,51,53,55,57,59,61,-1,-1,63,-1,-1,65,-1,-1,-1,-1,-1,67,69,71,73,75,77,-1,79,81,-1,-1,-1,-1,-1,-1,-1,-1,-1,-1,-1,-1,-1,-1,-1,-1,-1,-1,-1,-1,-1,-1,-1,-1,-1,-1,-1,-1],"loss_changes":[3.7363297E1,2.299505E1,3.2071445E1,2.2348873E1,1.2893847E1,9.6285E0,2.8626839E1,1.9721375E1,5.126505E0,1.9725224E1,1.1975559E1,9.172627E0,8.3302116E-1,1.8814436E1,2.1732368E1,2.4104568E1,7.1801567E0,1.3718781E1,5.248316E0,9.10159E0,0E0,9.979521E0,6.040148E0,0E0,1.5452431E1,0E0,0E0,2.049714E1,2.105387E1,4.5152044E0,1.5257751E1,3.3868202E1,1.5612839E1,4.246502E0,2.5743124E1,0E0,0E0,5.9956303E0,0E0,0E0,3.0942192E0,0E0,0E0,0E0,0E0,0E0,8.605772E0,7.487836E0,2.000478E1,2.2568512E0,1.16312065E1,6.466944E0,0E0,7.1771507E0,1.9242622E1,0E0,0E0,0E0,0E0,0E0,0E0,0E0,0E0,0E0,0E0,0E0,0E0,0E0,0E0,0E0,0E0,0E0,0E0,0E0,0E0,0E0,0E0,0E0,0E0,0E0,0E0,0E0,0E0],"parents":[2147483647,0,0,1,1,2,2,3,3,4,4,5,5,6,6,7,7,8,8,9,9,10,10,11,11,12,12,13,13,14,14,15,15,16,16,17,17,18,18,19,19,21,21,22,22,24,24,27,27,28,28,29,29,30,30,31,31,32,32,33,33,34,34,37,37,40,40,46,46,47,47,48,48,49,49,50,50,51,51,53,53,54,54],"right_children":[2,4,6,8,10,12,14,16,18,20,22,24,26,28,30,32,34,36,38,40,-1,42,44,-1,46,-1,-1,48,50,52,54,56,58,60,62,-1,-1,64,-1,-1,66,-1,-1,-1,-1,-1,68,70,72,74,76,78,-1,80,82,-1,-1,-1,-1,-1,-1,-1,-1,-1,-1,-1,-1,-1,-1,-1,-1,-1,-1,-1,-1,-1,-1,-1,-1,-1,-1,-1,-1],"split_conditions":[-3.3150294E-1,1.2844112E0,-1.5463257E0,2.0032163E0,2.9885435E-1,9.681351E-1,-2.960366E-1,2.7205312E-1,-1.3628254E0,9.0136194E-1,-8.0311704E-1,-2.6128445E0,1.4464862E0,-1.6601898E-1,-1.0043988E-1,-5.325941E-1,2.6506484E-1,7.247242E-1,5.136619E-1,-9.252749E-1,-2.8028544E-2,-9.262908E-1,-8.5344875E-1,2.9728582E-2,-2.1451572E-1,3.136674E-2,8.829175E-3,-1.7331891E0,7.5937696E-2,-1.8147508E-2,1.8127568E-2,-7.751063E-1,2.047001E0,-7.450229E-1,-5.2428657E-1,-2.6808377E-2,2.8649153E-2,-1.4992698E0,1.0218984E-2,-1.47407185E-2,5.0991976E-1,-2.581034E-2,2.0011932E-2,4.220956E-3,-3.3134248E-2,2.8222183E-2,1.2297151E0,1.0944022E0,1.0992619E0,-4.5366827E-1,2.0587768E-1,-1.3041799E-1,2.9723367E-2,-1.061774E0,3.5669494E-1,2.166985E-2,-2.9065229E-2,5.261805E-3,-1.1267318E-2,-4.5747967E-3,2.4918582E-2,-1.8190563E-2,2.4554374E-2,6.894623E-3,-2.7691284E-2,2.9927146E-2,2.477895E-3,-1.6313555E-2,2.316974E-2,3.069431E-2,-1.3541971E-2,-7.3106014E-3,2.6966048E-2,3.5576873E-2,3.8072395E-3,-4.302926E-3,1.5219256E-2,2.0643499E-2,-2.2940706E-2,1.0890626E-2,-2.5824223E-2,7.5935074E-3,-1.1416574E-2],"split_indices":[7,9,14,13,8,5,9,9,1,11,6,14,9,8,4,9,1,14,0,4,0,6,14,0,4,0,0,9,5,9,9,1,8,8,7,0,0,9,0,0,12,0,0,0,0,0,9,0,7,9,12,4,0,14,9,0,0,0,0,0,0,0,0,0,0,0,0,0,0,0,0,0,0,0,0,0,0,0,0,0,0,0,0],"split_type":[0,0,0,0,0,0,0,0,0,0,0,0,0,0,0,0,0,0,0,0,0,0,0,0,0,0,0,0,0,0,0,0,0,0,0,0,0,0,0,0,0,0,0,0,0,0,0,0,0,0,0,0,0,0,0,0,0,0,0,0,0,0,0,0,0,0,0,0,0,0,0,0,0,0,0,0,0,0,0,0,0,0,0],"sum_hessian":[7.432018E2,2.9041144E2,4.5279034E2,2.5303964E2,3.737178E1,3.5040237E1,4.177501E2,2.333543E2,1.9685358E1,1.696425E1,2.0407528E1,2.3399393E1,1.1640846E1,2.0141939E2,2.163307E2,1.67294E2,6.606028E1,5.234698E0,1.4450661E1,1.2477826E1,4.4864254E0,6.241024E0,1.4166504E1,4.4548154E0,1.8944576E1,9.904942E0,1.7359049E0,1.4104575E2,6.037365E1,8.73552E0,2.0759518E2,5.562501E1,1.11669E2,4.366005E1,2.240023E1,2.2458797E0,2.9888182E0,1.2702299E1,1.7483616E0,2.2459333E0,1.0231893E1,1.9974755E0,4.243549E0,1.7460934E0,1.242041E1,4.741258E0,1.4203319E1,9.195635E0,1.3185011E2,1.1717985E1,4.8655663E1,3.4945488E0,5.2409716E0,3.276347E1,1.7483173E2,5.0632576E1,4.992435E0,8.096838E1,3.0700613E1,1.7476321E0,4.1912415E1,7.9980927E0,1.4402137E1,1.9984934E0,1.0703806E1,7.9873395E0,2.2445533E0,1.2470592E1,1.7327273E0,7.946274E0,1.2493609E0,1.2562361E2,6.2265024E0,1.0469343E1,1.248642E0,2.8941032E1,1.971463E1,1.9978113E0,1.4967375E0,1.7483412E0,3.1015127E1,2.4062775E1,1.5076895E2],"tree_param":{"num_deleted":"0","num_feature":"15","num_nodes":"83","size_leaf_vector":"0"}},{"base_weights":[7.7251126E-3,7.257357E-1,-5.925882E-2,-7.82374E-1,1.1352413E0,-1.1135594E-2,-7.7283365E-1,1.3365729E0,-1.5222208E0,1.21251E0,-6.5699264E-2,6.6678536E-1,-4.98709E-2,8.774943E-1,-1.000419E0,1.3552256E0,5.146095E-1,-1.1870964E0,1.0880483E0,-1.0027747E0,9.3336296E-1,5.150432E-4,-5.147537E-1,-4.1067922E-1,1.429766E0,-1.2506185E0,-1.842404E-1,1.5879505E0,9.933141E-1,-5.061589E-1,1.4106661E0,1.817977E-1,-1.4171315E0,1.3283888E0,1.3991433E-1,4.0181896E-1,-7.924751E-2,-6.7986333E-1,9.917616E-1,1.9032435E-1,-1.3785541E0,5.93591E-1,-1.3281937E0,-7.7582943E-1,1.172807E0,1.0186522E0,-1.2336094E0,1.4790374E0,7.247318E-1,-1.053034E0,1.175065E0,6.469098E-1,-9.583769E-1,-7.369263E-1,-2.0878863E-2,-7.957751E-1,6.855732E-1,1.3317716E0,-2.0278327E-1,-1.466634E0,2.3807582E-1,1.403076E0,-1.283808E-1],"categories":[],"categories_nodes":[],"categories_segments":[],"categories_sizes":[],"default_left":[1,1,1,1,1,1,1,0,0,1,1,1,1,1,1,1,1,0,0,1,1,1,1,0,0,1,1,0,1,1,0,0,0,1,1,1,1,1,1,0,1,1,0,0,0,0,0,0,0,0,0,0,0,0,0,0,0,0,0,0,0,0,0],"id":13,"left_children":[1,3,5,7,9,11,13,-1,-1,15,17,19,21,23,25,27,29,-1,-1,31,33,35,37,-1,-1,39,41,-1,43,45,-1,-1,-1,47,49,51,53,55,57,-1,59,61,-1,-1,-1,-1,-1,-1,-1,-1,-1,-1,-1,-1,-1,-1,-1,-1,-1,-1,-1,-1,-1],"loss_changes":[3.5678158E1,3.9980564E1,2.3295242E1,2.4154045E1,4.73703E0,1.6754501E1,1.6975857E1,0E0,0E0,4.004486E0,6.4443607E0,1.6285007E1,1.41313E1,4.6615005E0,7.5567207E0,1.6721268E0,9.519314E0,0E0,0E0,2.824914E0,9.297552E0,1.7486029E1,1.534831E1,0E0,0E0,5.610977E0,9.793081E0,0E0,6.552677E0,7.0647006E0,0E0,0E0,0E0,7.543678E-1,1.5036487E1,3.0815338E1,1.7478474E1,9.054148E0,2.8018851E0,0E0,4.160877E0,4.1045604E0,0E0,0E0,0E0,0E0,0E0,0E0,0E0,0E0,0E0,0E0,0E0,0E0,0E0,0E0,0E0,0E0,0E0,0E0,0E0,0E0,0E0],"parents":[2147483647,0,0,1,1,2,2,3,3,4,4,5,5,6,6,9,9,10,10,11,11,12,12,13,13,14,14,15,15,16,16,19,19,20,20,21,21,22,22,25,25,26,26,28,28,29,29,33,33,34,34,35,35,36,36,37,37,38,38,40,40,41,41],"right_children":[2,4,6,8,10,12,14,-1,-1,16,18,20,22,24,26,28,30,-1,-1,32,34,36,38,-1,-1,40,42,-1,44,46,-1,-1,-1,48,50,52,54,56,58,-1,60,62,-1,-1,-1,-1,-1,-1,-1,-1,-1,-1,-1,-1,-1,-1,-1,-1,-1,-1,-1,-1,-1],"split_conditions":[-1.5044284E0,-8.339251E-1,1.495955E0,-2.7644947E-1,1.8398786E0,-7.6941276E-1,-9.308348E-1,2.6731458E-2,-3.0444417E-2,2.1110253E0,7.0708096E-1,-7.793004E-1,1.2299773E0,-1.2735218E0,1.7114758E0,5.3859805E-3,-6.954378E-1,-2.3741927E-2,2.1760967E-2,8.517739E-1,8.850855E-1,-8.3321583E-1,1.4898355E0,-8.213584E-3,2.859532E-2,-8.2094085E-1,1.7892935E0,3.175901E-2,-2.583946E-1,-1.5969148E0,2.8213322E-2,3.6359539E-3,-2.834263E-2,1.0913863E0,5.8963084E-1,-6.949168E-1,-7.3696125E-1,2.4925103E0,1.5998119E0,3.806487E-3,1.5805484E0,1.9781926E-1,-2.6563874E-2,-1.5516588E-2,2.345614E-2,2.0373043E-2,-2.4672188E-2,2.9580748E-2,1.4494636E-2,-2.106068E-2,2.3501301E-2,1.2938195E-2,-1.9167537E-2,-1.4738526E-2,-4.1757725E-4,-1.5915502E-2,1.3711464E-2,2.663543E-2,-4.0556653E-3,-2.933268E-2,4.761516E-3,2.806152E-2,-2.567616E-3],"split_indices":[3,10,6,13,13,8,14,0,0,8,14,10,14,12,5,14,10,0,0,2,14,10,2,0,0,13,3,0,13,2,0,0,0,3,12,8,10,14,13,0,12,12,0,0,0,0,0,0,0,0,0,0,0,0,0,0,0,0,0,0,0,0,0],"split_type":[0,0,0,0,0,0,0,0,0,0,0,0,0,0,0,0,0,0,0,0,0,0,0,0,0,0,0,0,0,0,0,0,0,0,0,0,0,0,0,0,0,0,0,0,0,0,0,0,0,0,0,0,0,0,0,0,0,0,0,0,0,0,0],"sum_hessian":[7.399299E2,6.2299366E1,6.7763055E2,1.3109548E1,4.9189816E1,6.3577E2,4.1860493E1,3.1839762E0,9.925571E0,4.6207203E1,2.982614E0,3.348704E1,6.02283E2,4.7270164E0,3.7133476E1,3.758042E1,8.626782E0,1.4978542E0,1.4847598E0,4.2304316E0,2.9256609E1,5.442895E2,5.799348E1,1.4953938E0,3.2316227E0,2.801362E1,9.119857E0,2.0810614E1,1.6769808E1,4.2361627E0,4.3906193E0,1.2417483E0,2.9886835E0,1.9082172E1,1.0174437E1,8.95757E1,4.547138E2,5.2759872E1,5.2336073E0,2.2446303E0,2.576899E1,5.715028E0,3.4048293E0,1.2386737E0,1.5531134E1,1.2389312E0,2.9972317E0,1.4110603E1,4.971569E0,4.7189074E0,5.455529E0,7.634386E1,1.3231839E1,3.6118378E1,4.1859543E2,4.90161E1,3.743771E0,3.9845772E0,1.2490302E0,2.4525532E1,1.2434582E0,2.249482E0,3.465546E0],"tree_param":{"num_deleted":"0","num_feature":"15","num_nodes":"63","size_leaf_vector":"0"}},{"base_weights":[1.2122215E-2,2.276245E-1,-1.6998544E-1,3.5424286E-1,-5.5493265E-1,1.5301864E0,-2.1156944E-1,4.4169858E-1,-5.541422E-1,1.967519E-1,-8.79547E-1,2.2170857E-1,-3.930377E-1,2.5431904E-1,7.795445E-1,-1.557521E0,-2.6108238E-3,-1.0815628E0,6.971328E-1,-1.1347237E0,5.783416E-1,-1.0448982E-1,6.034259E-1,-8.399503E-1,-3.789758E-2,1.1106665E0,1.341133E-1,1.2517956E0,1.9059369E-1,3.6849347E-1,-1.4155382E0,-1.8614314E-1,-1.3481994E0,1.0868869E0,-1.17474E0,-1.5344239E-2,-1.5329983E0,1.363492E0,-4.4595355E-1,-2.8269973E-1,1.4780128E0,8.815695E-1,-8.695266E-1,-1.0143337E0,-4.7317296E-2,1.3262337E0,-1.8159518E-1,-3.4459592E-3,1.4207357E0,1.5282563E0,3.6572244E-2,7.787904E-1,1.477822E0,1.4806008E0,-4.5750707E-1,-3.3901602E-1,9.334236E-1,1.6333265E0,1.0967594E-1,1.4253467E0,-1.0180061E0,5.792473E-1,-5.8132845E-1,-8.7509924E-1,1.089252E0,1.1935644E0,-1.5094038E0,-7.564863E-1,-1.6402123E0,5.227832E-1,-1.4247427E0,1.5077406E0,4.3897146E-1,-5.4183364E-2,-1.4040498E0],"categories":[],"categories_nodes":[],"categories_segments":[],"categories_sizes":[],"default_left":[1,1,1,1,1,0,1,1,1,1,1,1,1,1,1,0,1,1,1,1,1,1,1,1,1,1,1,1,1,1,0,0,0,1,0,1,0,0,0,1,0,1,1,1,1,1,1,0,0,0,0,0,0,0,0,0,0,0,0,0,0,0,0,0,0,0,0,0,0,0,0,0,0,0,0],"id":14,"left_children":[1,3,5,7,9,-1,11,13,15,17,19,21,23,25,27,-1,29,31,33,35,37,39,41,43,45,47,49,51,53,55,-1,-1,-1,57,-1,59,-1,-1,-1,61,-1,63,65,67,69,71,73,-1,-1,-1,-1,-1,-1,-1,-1,-1,-1,-1,-1,-1,-1,-1,-1,-1,-1,-1,-1,-1,-1,-1,-1,-1,-1,-1,-1],"loss_changes":[2.9615803E1,3.444155E1,2.9243685E1,2.3925808E1,1.2012675E1,0E0,3.1550554E1,1.7050255E1,1.4728309E1,1.0637398E1,1.3330997E1,1.4851114E1,4.4789692E1,1.804475E1,2.6662521E1,0E0,1.00545225E1,8.8041687E-1,9.822042E0,1.3053581E1,5.2222595E0,1.8718494E1,2.3247536E1,1.7229233E1,3.1291468E1,7.4730377E0,2.1175087E1,4.568718E0,3.7649128E1,6.388693E0,0E0,0E0,0E0,5.274806E0,0E0,1.4029682E1,0E0,0E0,0E0,1.5565497E1,0E0,1.7973751E1,1.3972366E1,1.528569E1,1.9269114E1,1.7886639E0,2.23818E1,0E0,0E0,0E0,0E0,0E0,0E0,0E0,0E0,0E0,0E0,0E0,0E0,0E0,0E0,0E0,0E0,0E0,0E0,0E0,0E0,0E0,0E0,0E0,0E0,0E0,0E0,0E0,0E0],"parents":[2147483647,0,0,1,1,2,2,3,3,4,4,6,6,7,7,8,8,9,9,10,10,11,11,12,12,13,13,14,14,16,16,17,17,18,18,19,19,20,20,21,21,22,22,23,23,24,24,25,25,26,26,27,27,28,28,29,29,33,33,35,35,39,39,41,41,42,42,43,43,44,44,45,45,46,46],"right_children":[2,4,6,8,10,-1,12,14,16,18,20,22,24,26,28,-1,30,32,34,36,38,40,42,44,46,48,50,52,54,56,-1,-1,-1,58,-1,60,-1,-1,-1,62,-1,64,66,68,70,72,74,-1,-1,-1,-1,-1,-1,-1,-1,-1,-1,-1,-1,-1,-1,-1,-1,-1,-1,-1,-1,-1,-1,-1,-1,-1,-1,-1,-1],"split_conditions":[-1.7881653E-1,1.2863898E0,-1.9974458E0,1.3404522E0,-7.8310776E-1,3.0603727E-2,4.4068836E-2,-7.372267E-1,1.7040151E-1,-9.326837E-1,2.6092672E0,-6.0583925E-1,7.4736154E-1,-8.278101E-1,1.9898791E0,-3.115042E-2,1.2925241E0,-1.0355135E0,9.785472E-1,-7.518407E-1,-8.603976E-1,1.1183836E0,-2.5780755E-1,1.1792134E0,5.8663297E-1,-2.1227643E0,-1.9722446E0,-7.934279E-2,-5.325941E-1,5.864833E-1,-2.8310763E-2,-3.7228628E-3,-2.6963986E-2,1.8479303E0,-2.3494799E-2,5.9951067E-1,-3.0659966E-2,2.726984E-2,-8.9190705E-3,-2.7551335E-1,2.9560255E-2,-1.6961249E0,-1.269716E-1,9.175179E-1,2.14434E-1,1.0982913E0,1.3132577E0,-6.891918E-5,2.8414713E-2,3.0565126E-2,7.3144486E-4,1.5575808E-2,2.9556438E-2,2.9612016E-2,-9.150141E-3,-6.7803203E-3,1.866847E-2,3.266653E-2,2.1935187E-3,2.8506935E-2,-2.0360122E-2,1.1584946E-2,-1.1626569E-2,-1.7501984E-2,2.178504E-2,2.3871288E-2,-3.0188076E-2,-1.5129725E-2,-3.2804247E-2,1.0455664E-2,-2.8494854E-2,3.0154811E-2,8.779429E-3,-1.0836673E-3,-2.8080994E-2],"split_indices":[7,9,14,14,14,0,5,10,9,6,9,8,7,14,8,0,6,0,3,8,5,9,9,9,6,14,5,11,9,0,0,0,0,9,0,4,0,0,0,5,0,14,4,9,6,14,9,0,0,0,0,0,0,0,0,0,0,0,0,0,0,0,0,0,0,0,0,0,0,0,0,0,0,0,0],"split_type":[0,0,0,0,0,0,0,0,0,0,0,0,0,0,0,0,0,0,0,0,0,0,0,0,0,0,0,0,0,0,0,0,0,0,0,0,0,0,0,0,0,0,0,0,0,0,0,0,0,0,0,0,0,0,0,0,0,0,0,0,0,0,0,0,0,0,0,0,0,0,0,0,0,0,0],"sum_hessian":[7.526602E2,3.4460825E2,4.0805194E2,2.9708673E2,4.7521534E1,8.887485E0,3.9916446E2,2.714649E2,2.5621813E1,1.4451408E1,3.3070126E1,1.17764755E2,2.8139972E2,1.7574448E2,9.5720436E1,8.441159E0,1.7180655E1,3.73871E0,1.0712698E1,2.8332676E1,4.7374496E0,6.3891895E1,5.387286E1,1.2399623E2,1.5740349E2,2.061847E1,1.55126E2,5.2498753E1,4.3221684E1,1.4192265E1,2.988389E0,1.2474928E0,2.4912171E0,9.213631E0,1.4990677E0,7.70782E0,2.0624857E1,2.4943273E0,2.2431223E0,5.8163322E1,5.728571E0,4.565343E1,8.219426E0,1.0140656E2,2.2589668E1,1.4216444E1,1.4318704E2,4.704298E0,1.5914171E1,9.184545E0,1.4594145E2,1.8412495E1,3.4086258E1,1.4023731E1,2.919795E1,6.478541E0,7.713724E0,5.4786477E0,3.7349825E0,2.9900112E0,4.7178087E0,1.4724261E1,4.3439064E1,4.48698E0,4.116645E1,1.7409515E0,6.478475E0,7.338312E1,2.8023449E1,1.6415815E1,6.1738534E0,1.1221541E1,2.994903E0,1.3061758E2,1.2569453E1],"tree_param":{"num_deleted":"0","num_feature":"15","num_nodes":"75","size_leaf_vector":"0"}},{"base_weights":[-9.83026E-3,6.649567E-1,-7.3568635E-2,1.0489224E0,2.0144443E-1,-2.3572719E-2,-8.0651313E-1,1.2628303E0,3.815876E-1,-5.389949E-1,1.045768E0,-1.3033961E-1,3.6026448E-1,9.574E-1,-1.020872E0,3.9907107E-1,1.5208842E0,9.9563813E-1,-4.250829E-1,1.057226E0,-7.6095104E-1,3.7960404E-1,1.5569786E0,4.9455825E-2,-3.9408576E-1,2.698664E-1,1.5409374E0,-2.4500422E-1,1.394592E0,3.1357428E-1,-1.120163E0,1.3629928E0,-1.2518327E0,1.390822E0,-2.717895E-1,1.0095323E0,-1.1679833E0,-1.5700035E0,-1.5595128E-1,9.441332E-1,-9.731027E-1,1.2727652E-1,-8.6142063E-1,2.2606078E-1,-8.2287955E-1,4.2793074E-1,-6.824918E-1,-6.122918E-1,1.0980786E0,-1.3870838E0,-3.2992673E-1,1.2745634E0,-8.015257E-1,-3.4541982E-1,1.3600452E0,-8.180215E-1,2.0319012E-1,-1.0608332E0,8.7341475E-1,6.430795E-1,-6.6550803E-1,9.533425E-2,-1.1143016E0,1.3891363E0,3.0804428E-1,9.125224E-1,-1.1348631E0,-1.1218716E-1,-1.4436522E0,9.609611E-1,-1.4339863E0],"categories":[],"categories_nodes":[],"categories_segments":[],"categories_sizes":[],"default_left":[1,1,1,1,1,1,1,1,1,1,1,1,1,1,1,1,0,1,1,0,1,1,0,1,1,1,0,0,0,1,1,0,0,0,0,0,0,0,1,1,0,1,1,1,1,1,1,0,0,1,1,0,0,0,0,0,0,0,0,0,0,0,0,0,0,0,0,0,0,0,0],"id":15,"left_children":[1,3,5,7,9,11,13,15,17,19,21,23,25,27,29,31,-1,33,35,-1,37,39,-1,41,43,45,-1,-1,-1,47,49,-1,-1,-1,-1,-1,-1,-1,51,53,-1,55,57,59,61,63,65,-1,-1,67,69,-1,-1,-1,-1,-1,-1,-1,-1,-1,-1,-1,-1,-1,-1,-1,-1,-1,-1,-1,-1],"loss_changes":[3.201879E1,1.1223707E1,2.4901417E1,4.500511E0,1.9536337E1,2.6179281E1,1.7386038E1,5.187954E0,5.329667E0,6.766712E0,4.353554E0,2.371215E1,1.4423651E1,3.0848646E0,5.5422974E0,1.3380588E1,0E0,3.344802E0,6.4887686E0,0E0,7.2714024E0,6.742797E0,0E0,2.123248E1,5.4071926E1,1.9915813E1,0E0,0E0,0E0,3.2105637E0,7.28006E0,0E0,0E0,0E0,0E0,0E0,0E0,0E0,1.0160649E1,3.6280632E0,0E0,1.992946E1,9.085182E0,3.151892E1,3.2222313E1,1.2526781E1,1.47028055E1,0E0,0E0,1.7931366E0,1.6448696E1,0E0,0E0,0E0,0E0,0E0,0E0,0E0,0E0,0E0,0E0,0E0,0E0,0E0,0E0,0E0,0E0,0E0,0E0,0E0,0E0],"parents":[2147483647,0,0,1,1,2,2,3,3,4,4,5,5,6,6,7,7,8,8,9,9,10,10,11,11,12,12,13,13,14,14,15,15,17,17,18,18,20,20,21,21,23,23,24,24,25,25,29,29,30,30,38,38,39,39,41,41,42,42,43,43,44,44,45,45,46,46,49,49,50,50],"right_children":[2,4,6,8,10,12,14,16,18,20,22,24,26,28,30,32,-1,34,36,-1,38,40,-1,42,44,46,-1,-1,-1,48,50,-1,-1,-1,-1,-1,-1,-1,52,54,-1,56,58,60,62,64,66,-1,-1,68,70,-1,-1,-1,-1,-1,-1,-1,-1,-1,-1,-1,-1,-1,-1,-1,-1,-1,-1,-1,-1],"split_conditions":[-1.5044284E0,2.171344E-3,1.5041463E0,-1.5669694E0,-1.7860518E0,6.3576674E-1,-8.844727E-1,8.1383383E-1,2.1110253E0,-1.9536498E0,8.706999E-1,4.4068836E-2,2.3707204E0,-1.1988969E0,-8.2094085E-1,-1.9726076E0,3.0417683E-2,-1.475739E0,-1.8401272E0,2.1144519E-2,-1.924928E0,3.5010198E-1,3.1139571E-2,1.7369146E0,-1.7881653E-1,2.2302825E0,3.0818747E-2,-4.9000843E-3,2.789184E-2,2.683273E-3,1.713113E0,2.7259855E-2,-2.5036654E-2,2.781644E-2,-5.4357895E-3,2.0190647E-2,-2.3359666E-2,-3.140007E-2,-1.8741653E0,-1.5213694E-1,-1.9462053E-2,-1.1213908E0,3.0071339E-2,1.0120995E0,-6.1076415E-1,8.907816E-2,1.0279124E0,-1.2245836E-2,2.1961572E-2,1.4479015E0,1.7877784E0,2.5491267E-2,-1.6030515E-2,-6.9083963E-3,2.7200904E-2,-1.636043E-2,4.0638023E-3,-2.1216664E-2,1.7468294E-2,1.286159E-2,-1.33101605E-2,1.906685E-3,-2.2286031E-2,2.7782725E-2,6.1608856E-3,1.8250447E-2,-2.2697262E-2,-2.2437433E-3,-2.8873043E-2,1.9219222E-2,-2.8679725E-2],"split_indices":[3,14,6,6,6,7,14,8,8,0,11,5,7,11,13,5,0,6,11,0,0,14,0,13,7,7,0,0,0,14,5,0,0,0,0,0,0,0,5,13,0,7,7,6,13,3,4,0,0,1,4,0,0,0,0,0,0,0,0,0,0,0,0,0,0,0,0,0,0,0,0],"split_type":[0,0,0,0,0,0,0,0,0,0,0,0,0,0,0,0,0,0,0,0,0,0,0,0,0,0,0,0,0,0,0,0,0,0,0,0,0,0,0,0,0,0,0,0,0,0,0,0,0,0,0,0,0,0,0,0,0,0,0,0,0,0,0,0,0,0,0,0,0,0,0],"sum_hessian":[7.4231555E2,6.325141E1,6.790641E2,3.3903408E1,2.9348001E1,6.3666766E2,4.239648E1,2.4998144E1,8.905265E0,1.5828576E1,1.3519426E1,4.986306E2,1.3803702E2,4.218337E0,3.8178143E1,6.336167E0,1.8661978E1,4.923308E0,3.9819572E0,1.4728932E0,1.4355682E1,6.6266828E0,6.892744E0,2.9698727E2,2.0164336E2,1.2936107E2,8.675944E0,1.2420198E0,2.9763174E0,2.4945045E0,3.568364E1,4.110528E0,2.225639E0,3.678876E0,1.244432E0,1.236072E0,2.7458854E0,5.459615E0,8.896068E0,4.8885646E0,1.738118E0,2.7440384E2,2.2583414E1,8.2622574E1,1.1902078E2,1.11419304E2,1.7941769E1,1.2448545E0,1.24965E0,2.6109325E1,9.574312E0,2.4633265E0,6.432741E0,1.233508E0,3.6550567E0,1.9671608E1,2.5473224E2,2.0603619E1,1.979795E0,5.6482426E1,2.6140146E1,2.8836252E1,9.018453E1,1.1181669E1,1.0023763E2,3.7394962E0,1.4202271E1,1.236021E0,2.4873304E1,4.4734635E0,5.100849E0],"tree_param":{"num_deleted":"0","num_feature":"15","num_nodes":"71","size_leaf_vector":"0"}},{"base_weights":[-1.7611535E-2,2.3217554E-1,-2.2532625E-1,3.528718E-1,-4.7292608E-1,1.8079749E-1,-3.9688775E-1,1.4689477E-1,7.3811704E-1,-6.2488574E-1,8.7353563E-1,7.555333E-2,1.6294345E0,-8.2977444E-1,-3.7095394E-2,5.734902E-1,-1.5172735E-1,2.3730314E-1,1.0450915E0,6.455822E-2,-9.3181026E-1,1.2201456E0,-1.7243938E-1,1.4116452E0,-1.3666509E-2,-1.4329785E-1,-1.0505922E0,2.4027956E-1,-7.094258E-1,6.6547537E-1,-1.1972764E0,-3.9677542E-1,3.3207968E-1,1.3742888E0,-4.1671413E-1,1.1355474E0,1.2881E-1,-1.281889E0,6.277974E-1,-1.4240743E0,-2.695121E-1,-2.9787996E-1,5.561777E-1,4.972376E-1,-4.6459782E-1,-1.2095652E0,-1.6337644E-1,3.4072492E-1,-1.2218112E0,7.326956E-1,-1.0269176E0,1.4858067E0,5.3395236E-1,-1.6932158E-1,-1.5844216E0,1.6988456E0,-3.9981935E-2,1.6093763E0,4.6289244E-1,1.3301253E0,-6.993799E-1,1.2894092E0,3.383133E-1,9.8895395E-1,-8.242127E-1,1.1020097E0,-1.2324339E0,3.532719E-2,-1.6094981E0,1.4318607E0,-1.3612604E0,-4.8308127E-2,-1.1847055E0,1.127406E0,-8.732858E-1,1.2203636E0,-3.04853E-1,-8.469274E-1,9.766208E-2,-1.5097834E0,-6.5040845E-1,3.445604E-1,-1.457794E0,2.2855285E-1,1.5008267E0,-1.4255171E0,-1.111549E-1,-3.7841818E-1,1.0062664E0,-1.3131317E0,-1.23737685E-1],"categories":[],"categories_nodes":[],"categories_segments":[],"categories_sizes":[],"default_left":[1,1,1,1,1,1,1,1,1,1,1,1,0,1,1,1,1,1,1,1,1,0,0,0,1,1,1,1,1,1,0,1,1,1,1,1,1,0,1,1,1,1,1,1,1,1,1,1,1,1,1,0,0,0,0,0,0,0,0,0,0,0,0,0,0,0,0,0,0,0,0,0,0,0,0,0,0,0,0,0,0,0,0,0,0,0,0,0,0,0,0],"id":16,"left_children":[1,3,5,7,9,11,13,15,17,19,21,23,-1,25,27,29,31,33,35,37,39,-1,-1,-1,41,43,45,47,49,51,-1,53,55,57,59,61,63,-1,65,67,69,71,73,75,77,79,81,83,85,87,89,-1,-1,-1,-1,-1,-1,-1,-1,-1,-1,-1,-1,-1,-1,-1,-1,-1,-1,-1,-1,-1,-1,-1,-1,-1,-1,-1,-1,-1,-1,-1,-1,-1,-1,-1,-1,-1,-1,-1,-1],"loss_changes":[3.870856E1,2.8996193E1,2.8449589E1,2.2889141E1,1.0763797E1,1.8422752E1,4.4613804E1,2.4303553E1,1.5236687E1,9.679316E0,2.197698E0,1.36628065E1,0E0,1.9564636E1,2.9558052E1,1.3580727E1,1.34825115E1,2.9997213E1,5.0050735E0,1.213341E1,9.892357E0,0E0,0E0,0E0,1.7702314E1,6.9838166E0,1.3659523E1,1.6909712E1,2.1941277E1,7.325779E0,0E0,2.0047466E1,1.959788E1,2.4008427E0,1.371282E1,6.48687E0,6.3174505E0,0E0,1.1241303E1,4.886471E0,2.9202349E1,1.6076897E1,3.0692272E1,7.0095663E0,4.891136E0,1.2978348E1,1.1078085E1,1.343386E1,1.52427E0,3.096333E0,9.749596E0,0E0,0E0,0E0,0E0,0E0,0E0,0E0,0E0,0E0,0E0,0E0,0E0,0E0,0E0,0E0,0E0,0E0,0E0,0E0,0E0,0E0,0E0,0E0,0E0,0E0,0E0,0E0,0E0,0E0,0E0,0E0,0E0,0E0,0E0,0E0,0E0,0E0,0E0,0E0,0E0],"parents":[2147483647,0,0,1,1,2,2,3,3,4,4,5,5,6,6,7,7,8,8,9,9,10,10,11,11,13,13,14,14,15,15,16,16,17,17,18,18,19,19,20,20,24,24,25,25,26,26,27,27,28,28,29,29,31,31,32,32,33,33,34,34,35,35,36,36,38,38,39,39,40,40,41,41,42,42,43,43,44,44,45,45,46,46,47,47,48,48,49,49,50,50],"right_children":[2,4,6,8,10,12,14,16,18,20,22,24,-1,26,28,30,32,34,36,38,40,-1,-1,-1,42,44,46,48,50,52,-1,54,56,58,60,62,64,-1,66,68,70,72,74,76,78,80,82,84,86,88,90,-1,-1,-1,-1,-1,-1,-1,-1,-1,-1,-1,-1,-1,-1,-1,-1,-1,-1,-1,-1,-1,-1,-1,-1,-1,-1,-1,-1,-1,-1,-1,-1,-1,-1,-1,-1,-1,-1,-1,-1],"split_conditions":[-1.7881653E-1,1.2857766E0,4.4068836E-2,-7.372267E-1,2.742126E0,1.0997844E0,7.4736154E-1,2.171344E-3,-1.3617405E-1,-7.7423763E-1,-7.570077E-1,-1.7331891E0,3.2588687E-2,-5.357752E-1,1.4901258E0,1.0895426E0,-6.654973E-1,-5.325941E-1,1.3381097E0,-9.262908E-1,4.0266627E-1,2.440291E-2,-3.4487876E-3,2.8232902E-2,1.9122547E-1,7.8913784E-1,1.2218006E0,1.4135089E0,-7.5966513E-1,-1.9722446E0,-2.3945527E-2,-6.9589686E-1,-9.033015E-1,-5.855776E-1,-1.5969148E0,8.299336E-1,1.4587693E0,-2.563778E-2,9.6113247E-1,-8.855655E-1,-6.944727E-1,2.2086284E-1,-5.004961E-1,-7.7510023E-1,1.0514176E0,3.6826706E-1,5.438152E-2,2.3707204E0,1.4206538E0,-1.3251083E0,1.713113E0,2.9716134E-2,1.0679047E-2,-3.3864316E-3,-3.1688433E-2,3.3976912E-2,-7.996387E-4,3.2187525E-2,9.257848E-3,2.6602507E-2,-1.3987598E-2,2.5788182E-2,6.766266E-3,1.9779079E-2,-1.6484253E-2,2.2040192E-2,-2.4648678E-2,7.0654374E-4,-3.218996E-2,2.8637214E-2,-2.7225208E-2,-9.6616254E-4,-2.369411E-2,2.2548119E-2,-1.7465714E-2,2.4407271E-2,-6.0970597E-3,-1.6938549E-2,1.9532414E-3,-3.0195666E-2,-1.3008169E-2,6.8912082E-3,-2.9155878E-2,4.571057E-3,3.0016534E-2,-2.8510341E-2,-2.223098E-3,-7.5683636E-3,2.0125326E-2,-2.6262634E-2,-2.4747537E-3],"split_indices":[7,9,5,10,9,9,7,14,9,14,2,9,0,13,6,4,7,9,14,6,5,0,0,0,10,9,9,9,13,5,0,7,10,9,2,2,13,0,2,2,10,13,9,13,9,7,7,7,4,12,5,0,0,0,0,0,0,0,0,0,0,0,0,0,0,0,0,0,0,0,0,0,0,0,0,0,0,0,0,0,0,0,0,0,0,0,0,0,0,0,0],"split_type":[0,0,0,0,0,0,0,0,0,0,0,0,0,0,0,0,0,0,0,0,0,0,0,0,0,0,0,0,0,0,0,0,0,0,0,0,0,0,0,0,0,0,0,0,0,0,0,0,0,0,0,0,0,0,0,0,0,0,0,0,0,0,0,0,0,0,0,0,0,0,0,0,0,0,0,0,0,0,0,0,0,0,0,0,0,0,0,0,0,0,0],"sum_hessian":[7.4404486E2,3.377574E2,4.0628748E2,2.8881827E2,4.8939117E1,1.2064363E2,2.8564383E2,1.8909639E2,9.972186E1,4.4457607E1,4.4815135E0,1.13453354E2,7.1902843E0,1.2905916E2,1.5658469E2,7.7485016E1,1.11611374E2,3.856993E1,6.115193E1,1.3938112E1,3.0519493E1,3.2410092E0,1.2405044E0,6.173993E0,1.0727936E2,3.1811806E1,9.7247345E1,1.1130684E2,4.527785E1,7.425207E1,3.232947E0,7.420597E1,3.7405403E1,1.3682351E1,2.488758E1,5.54396E1,5.712329E0,3.7345617E0,1.020355E1,1.6847277E1,1.3672215E1,7.1897354E1,3.5382004E1,1.0443777E1,2.1368029E1,8.216206E1,1.5085279E1,1.0486929E2,6.4375405E0,7.9336414E0,3.7344208E1,8.837035E0,6.541504E1,6.323751E1,1.0968457E1,7.240701E0,3.0164703E1,1.0267972E1,3.4143786E0,2.9501815E0,2.1937399E1,4.595348E1,9.486121E0,2.9826536E0,2.7296755E0,8.455628E0,1.7479228E0,1.9904754E0,1.4856802E1,5.222296E0,8.44992E0,5.693039E1,1.4966966E1,2.5430874E1,9.95113E0,5.218001E0,5.2257757E0,1.2417794E1,8.950233E0,5.235299E1,2.9809078E1,1.1360977E1,3.724302E0,9.67148E1,8.154494E0,5.200267E0,1.2372739E0,1.4917226E0,6.441919E0,2.8013079E1,9.331132E0],"tree_param":{"num_deleted":"0","num_feature":"15","num_nodes":"91","size_leaf_vector":"0"}},{"base_weights":[-1.4213082E-2,6.0614336E-1,-7.7139184E-2,4.9465492E-1,1.5104386E0,-4.427791E-2,-9.789558E-1,6.2251544E-1,-1.1629429E0,-1.1133002E0,-1.4397036E-2,-1.2716388E0,8.520489E-2,2.4621159E-1,9.364298E-1,-1.4256123E0,-2.3422623E-1,5.976215E-1,-1.2818501E0,1.0024286E-1,-2.942032E-1,-1.524786E0,-5.911622E-1,1.0043329E0,-1.1783146E0,1.349822E0,-2.6115692E-1,2.603359E-1,1.3495356E0,-1.5768281E0,-2.2905242E-1,5.103619E-1,1.2478948E-2,-5.504618E-1,1.0272182E-1,9.3379235E-1,-1.3314506E0,1.2506721E0,2.5231144E-1,-1.0978087E0,7.344888E-1,1.3310113E0,-8.6695266E-1,5.289108E-1,1.4127043E0,1.1348134E0,-1.2177811E0,1.6160955E-1,1.2201204E0,1.0811142E0,-2.6659911E-2,9.7842354E-1,-7.0160675E-1,6.344263E-1,-2.8710714E-1],"categories":[],"categories_nodes":[],"categories_segments":[],"categories_sizes":[],"default_left":[1,1,1,1,0,1,1,1,1,1,1,1,1,1,1,0,0,0,1,1,1,0,1,1,0,0,1,1,1,0,1,1,1,1,1,0,0,0,0,0,0,0,0,0,0,0,0,0,0,0,0,0,0,0,0],"id":17,"left_children":[1,3,5,7,-1,9,11,13,15,17,19,21,23,25,27,-1,-1,-1,29,31,33,-1,35,37,-1,-1,39,41,43,-1,45,47,49,51,53,-1,-1,-1,-1,-1,-1,-1,-1,-1,-1,-1,-1,-1,-1,-1,-1,-1,-1,-1,-1],"loss_changes":[2.848755E1,6.028805E0,1.958552E1,1.3720139E1,0E0,2.0431469E1,7.346628E0,6.571186E0,8.2236147E-1,5.7816887E0,2.0036695E1,2.2491665E0,8.093613E0,1.5775591E1,8.316845E0,0E0,0E0,0E0,4.65452E0,1.5945826E1,1.8521019E1,0E0,8.685379E0,4.2255878E-1,0E0,0E0,1.7222654E1,1.6856495E1,2.3905563E-1,0E0,7.7263207E0,1.9134588E1,1.5340846E1,2.6214088E1,1.5118566E1,0E0,0E0,0E0,0E0,0E0,0E0,0E0,0E0,0E0,0E0,0E0,0E0,0E0,0E0,0E0,0E0,0E0,0E0,0E0,0E0],"parents":[2147483647,0,0,1,1,2,2,3,3,5,5,6,6,7,7,8,8,9,9,10,10,11,11,12,12,13,13,14,14,18,18,19,19,20,20,22,22,23,23,26,26,27,27,28,28,30,30,31,31,32,32,33,33,34,34],"right_children":[2,4,6,8,-1,10,12,14,16,18,20,22,24,26,28,-1,-1,-1,30,32,34,-1,36,38,-1,-1,40,42,44,-1,46,48,50,52,54,-1,-1,-1,-1,-1,-1,-1,-1,-1,-1,-1,-1,-1,-1,-1,-1,-1,-1,-1,-1],"split_conditions":[-1.4933189E0,1.528274E0,1.6559055E0,4.8441023E-1,3.020877E-2,-1.1621864E0,1.2415755E0,1.3121111E0,6.8626225E-1,-5.211619E-1,8.346466E-1,1.7510585E0,2.4039412E0,-1.9738381E0,-5.9050417E-1,-2.8512245E-2,-4.6845246E-3,1.195243E-2,9.259905E-1,-7.4076164E-1,-9.866426E-3,-3.049572E-2,1.7877784E0,5.8579773E-2,-2.356629E-2,2.6996441E-2,-4.829082E-1,-1.5928746E0,-9.4083136E-1,-3.153656E-2,-1.3849607E0,1.02109864E-1,-1.4046354E0,-2.0105958E0,1.1316625E0,1.8675847E-2,-2.662901E-2,2.5013441E-2,5.046229E-3,-2.1956174E-2,1.4689775E-2,2.6620226E-2,-1.7339053E-2,1.0578216E-2,2.8254086E-2,2.2696268E-2,-2.435562E-2,3.2321909E-3,2.4402408E-2,2.1622283E-2,-5.3319824E-4,1.956847E-2,-1.4032135E-2,1.2688526E-2,-5.7421424E-3],"split_indices":[4,12,3,14,0,7,12,8,14,9,9,4,11,4,13,0,0,0,14,14,14,0,4,9,0,0,9,2,12,0,0,9,1,14,9,0,0,0,0,0,0,0,0,0,0,0,0,0,0,0,0,0,0,0,0],"split_type":[0,0,0,0,0,0,0,0,0,0,0,0,0,0,0,0,0,0,0,0,0,0,0,0,0,0,0,0,0,0,0,0,0,0,0,0,0,0,0,0,0,0,0,0,0,0,0,0,0,0,0,0,0,0,0],"sum_hessian":[7.2756714E2,6.620943E1,6.613577E2,6.031975E1,5.8896756E0,6.3911804E2,2.2239706E1,5.6579853E1,3.7398977E0,1.6392696E1,6.2272534E2,1.7289497E1,4.9502096E0,2.6544292E1,3.003556E1,2.4982746E0,1.2416232E0,1.241793E0,1.5150904E1,4.4219467E2,1.8053065E2,1.1697204E1,5.592293E0,2.9843905E0,1.9658189E0,7.837026E0,1.8707268E1,1.2010017E1,1.8025545E1,1.1446122E1,3.7047815E0,7.709872E1,3.6509595E2,1.0946936E2,7.106129E1,1.7421557E0,3.8501375E0,1.7485414E0,1.2358491E0,1.0109519E1,8.597748E0,6.066993E0,5.943024E0,1.9582981E0,1.6067245E1,1.4949192E0,2.2098622E0,5.2519855E1,2.457886E1,1.1958633E1,3.5313733E2,9.356058E0,1.00113304E2,2.9795069E1,4.126622E1],"tree_param":{"num_deleted":"0","num_feature":"15","num_nodes":"55","size_leaf_vector":"0"}},{"base_weights":[7.2620885E-4,2.3137563E-1,-1.862697E-1,2.8705186E-1,-6.758173E-1,2.2122878E-1,-3.4894508E-1,1.1114585E0,2.123227E-1,1.2996545E-1,-1.0230681E0,1.2437642E-1,9.8968065E-1,-7.577009E-1,-1.5136408E-2,1.2597648E0,-7.839343E-1,2.6532492E-1,-7.5803477E-1,-5.972759E-1,1.0926242E0,3.9993384E-1,-1.3378214E0,4.7722653E-2,1.2435766E0,1.2190362E0,-6.429559E-1,6.46908E-1,-8.910167E-1,2.7359036E-1,-7.135461E-1,6.624288E-1,1.5773484E0,1.4264052E0,2.2796644E-1,1.6660179E-1,-1.1939126E0,-9.1739035E-1,2.7276097E-2,-1.5639614E0,1.0419714E-1,1.5033065E-1,-1.1466419E0,1.4764844E0,1.21164925E-1,1.3306406E0,1.5160395E-1,-7.316992E-1,1.2433865E0,-5.562979E-1,-1.254192E0,1.3962345E0,1.696435E-1,-9.2827624E-1,2.2735657E-1,1.0297475E0,-8.74648E-1,-1.0817288E0,2.7088332E-1,1.0250934E0,-1.149995E0,-1.4078801E0,-7.899753E-2,3.113751E-1,-3.9615566E-1,6.627039E-1,-1.5817342E0,1.4494076E0,3.7063807E-1,-1.1894149E0,6.467257E-2,4.6008414E-1,1.6170298E0,-7.3112375E-1,1.2730638E0,1.3392371E-1,-1.3199171E0,-6.816789E-1,3.5005707E-1,-2.0283715E-1,-1.3507724E0,1.5159892E0,-9.47709E-1],"categories":[],"categories_nodes":[],"categories_segments":[],"categories_sizes":[],"default_left":[1,1,1,1,1,1,1,1,1,1,1,1,1,1,1,1,0,1,1,1,0,0,1,1,1,1,0,1,1,1,1,1,0,0,1,1,1,0,0,0,0,1,1,0,0,1,0,1,1,1,1,0,1,1,1,0,0,0,0,0,0,0,0,0,0,0,0,0,0,0,0,0,0,0,0,0,0,0,0,0,0,0,0],"id":18,"left_children":[1,3,5,7,9,11,13,15,17,19,21,23,25,27,29,31,-1,33,35,37,-1,-1,39,41,43,45,-1,47,49,51,53,55,-1,-1,57,59,61,-1,-1,-1,-1,63,65,-1,-1,67,-1,69,71,73,75,-1,77,79,81,-1,-1,-1,-1,-1,-1,-1,-1,-1,-1,-1,-1,-1,-1,-1,-1,-1,-1,-1,-1,-1,-1,-1,-1,-1,-1,-1,-1],"loss_changes":[3.180954E1,1.6872793E1,2.7077442E1,1.8974491E1,5.559058E0,8.571363E0,3.976064E1,8.206202E0,1.4969144E1,5.3624086E0,6.6553774E0,8.939076E0,5.626128E0,2.5109375E1,3.2756187E1,3.5459785E0,0E0,1.1516994E1,6.297144E0,9.204807E-1,0E0,0E0,3.8869343E0,1.2330018E1,1.5682564E0,1.1901989E0,0E0,1.0725081E1,1.3898956E1,1.3179219E1,9.809229E0,6.616806E0,0E0,0E0,1.5226961E1,7.6499515E0,2.371151E0,0E0,0E0,0E0,0E0,8.241281E0,7.317995E0,0E0,0E0,6.542187E-1,0E0,1.6203752E0,1.8028812E0,2.1489828E1,5.3582306E0,0E0,1.6574816E1,1.1641251E1,1.6019468E1,0E0,0E0,0E0,0E0,0E0,0E0,0E0,0E0,0E0,0E0,0E0,0E0,0E0,0E0,0E0,0E0,0E0,0E0,0E0,0E0,0E0,0E0,0E0,0E0,0E0,0E0,0E0,0E0],"parents":[2147483647,0,0,1,1,2,2,3,3,4,4,5,5,6,6,7,7,8,8,9,9,10,10,11,11,12,12,13,13,14,14,15,15,17,17,18,18,19,19,22,22,23,23,24,24,25,25,27,27,28,28,29,29,30,30,31,31,34,34,35,35,36,36,41,41,42,42,45,45,47,47,48,48,49,49,50,50,52,52,53,53,54,54],"right_children":[2,4,6,8,10,12,14,16,18,20,22,24,26,28,30,32,-1,34,36,38,-1,-1,40,42,44,46,-1,48,50,52,54,56,-1,-1,58,60,62,-1,-1,-1,-1,64,66,-1,-1,68,-1,70,72,74,76,-1,78,80,82,-1,-1,-1,-1,-1,-1,-1,-1,-1,-1,-1,-1,-1,-1,-1,-1,-1,-1,-1,-1,-1,-1,-1,-1,-1,-1,-1,-1],"split_conditions":[-1.7881653E-1,1.0957651E0,3.594738E-2,-7.505902E-1,1.1386739E0,2.0730887E-2,7.4736154E-1,-6.940673E-1,1.3411953E0,1.1488391E0,-3.3150294E-1,6.363824E-1,7.796929E-1,-1.1473923E0,1.4910786E0,-1.4856991E-1,-1.5678685E-2,-1.9722446E0,-7.311045E-1,1.1340995E0,2.1852484E-2,7.998677E-3,-6.7641556E-1,5.289618E-1,2.696448E-1,3.8143557E-1,-1.2859117E-2,-7.6172495E-1,1.7769216E-1,-1.0866369E0,1.0492704E0,-2.9915157E-1,3.1546965E-2,2.8528104E-2,-1.5050895E0,1.9322274E0,-7.1467227E-1,-1.8347807E-2,5.455219E-4,-3.127923E-2,2.0839428E-3,-4.058426E-2,-1.3181634E-1,2.9529687E-2,2.4232985E-3,5.960332E-1,3.032079E-3,-1.327374E0,-4.4922084E-1,8.3734643E-1,-6.245703E-1,2.792469E-2,-5.3553504E-1,-2.578171E-1,2.1560419E0,2.0594949E-2,-1.749296E-2,-2.1634575E-2,5.4176664E-3,2.0501869E-2,-2.29999E-2,-2.8157601E-2,-1.5799506E-3,6.227502E-3,-7.923113E-3,1.3254077E-2,-3.1634685E-2,2.898815E-2,7.4127614E-3,-2.3788298E-2,1.2934513E-3,9.201682E-3,3.2340594E-2,-1.4622475E-2,2.5461275E-2,2.6784742E-3,-2.639834E-2,-1.3633577E-2,7.001141E-3,-4.056743E-3,-2.7015448E-2,3.0319784E-2,-1.895418E-2],"split_indices":[7,5,5,8,1,2,7,10,14,5,7,7,11,11,5,11,0,5,8,5,0,0,10,7,14,14,0,8,3,12,12,11,0,0,7,14,10,0,0,0,0,4,1,0,0,10,0,12,10,11,10,0,11,12,14,0,0,0,0,0,0,0,0,0,0,0,0,0,0,0,0,0,0,0,0,0,0,0,0,0,0,0,0],"split_type":[0,0,0,0,0,0,0,0,0,0,0,0,0,0,0,0,0,0,0,0,0,0,0,0,0,0,0,0,0,0,0,0,0,0,0,0,0,0,0,0,0,0,0,0,0,0,0,0,0,0,0,0,0,0,0,0,0,0,0,0,0,0,0,0,0,0,0,0,0,0,0,0,0,0,0,0,0,0,0,0,0,0,0],"sum_hessian":[7.3551917E2,3.2921402E2,4.0630518E2,3.1082187E2,1.8392164E1,1.15819565E2,2.904856E2,2.4680056E1,2.8614178E2,5.727481E0,1.2664683E1,1.0388785E2,1.1931722E1,1.3001257E2,1.6047304E2,2.3200104E1,1.4799523E0,2.7201077E2,1.4131022E1,3.4788992E0,2.2485814E0,2.2448912E0,1.0419792E1,9.820448E1,5.6833634E0,1.0684129E1,1.2475923E0,1.0936255E1,1.1907631E2,1.1396675E2,4.6506275E1,9.124282E0,1.4075822E1,7.3202415E0,2.6469052E2,4.725181E0,9.405842E0,1.9900306E0,1.4888686E0,8.934156E0,1.4856353E0,9.1240166E1,6.9643197E0,4.445447E0,1.2379165E0,9.44956E0,1.2345692E0,3.2343006E0,7.7019553E0,6.3283306E1,5.5793007E1,8.604496E0,1.0536226E2,3.787579E1,8.6304865E0,7.6307945E0,1.4934871E0,7.630331E0,2.570602E2,2.9942055E0,1.7309756E0,7.670919E0,1.7349226E0,7.080485E1,2.0435312E1,1.2486472E0,5.7156725E0,7.955541E0,1.4940187E0,1.740439E0,1.4938616E0,3.2080262E0,4.4939294E0,5.8311058E1,4.972247E0,2.4753788E0,5.3317627E1,1.7938229E1,8.742403E1,1.4484883E1,2.3390907E1,3.9779484E0,4.6525383E0],"tree_param":{"num_deleted":"0","num_feature":"15","num_nodes":"83","size_leaf_vector":"0"}},{"base_weights":[-8.204732E-3,2.5664803E-1,-1.757217E-1,3.5149702E-1,-6.161417E-1,7.138051E-1,-2.4511966E-1,4.3771657E-1,-5.419146E-1,2.4975613E-1,-1.1317567E0,9.7947E-1,-3.0494308E-2,2.6162893E-2,-5.083784E-1,8.5281444E-1,3.0090114E-1,3.8196957E-1,-7.9687953E-1,-1.148329E0,1.2252716E0,-1.3374218E0,3.5042876E-1,1.1744456E0,-3.1324172E-1,-1.318108E0,1.0030814E0,-3.3169496E-1,2.3973815E-1,9.788366E-1,-5.7065713E-1,1.060985E0,-1.1400658E0,-4.7783278E-2,7.727687E-1,-9.501071E-1,1.3484247E0,5.763324E-1,-9.737243E-1,-2.0298125E-1,-1.3920771E0,1.7308487E-1,1.4151608E0,-4.2248568E-1,-1.577369E0,1.2694122E0,-2.0944415E-1,-9.459816E-1,5.9974635E-1,1.4168406E0,-3.1529748E-1,1.0606854E0,-5.257907E-1,1.6432556E0,9.828026E-2,1.5013809E0,-2.775017E-1,-6.8817824E-1,3.511619E-2,1.3924786E-1,1.3857023E0,-4.0621042E-2,-1.4978089E0,7.965027E-1,-1.7891754E-1,1.6260375E0,6.503851E-1,-1.2089545E0,3.839694E-1,3.450086E-1,-1.1096698E0,1.3296334E-1,1.4198498E0,1.2636069E0,-5.1594984E-2,1.0211872E-1,-9.5196676E-1,8.264376E-3,1.458999E0,-1.0252773E0,5.962454E-1,-7.484246E-1,1.3751509E0,7.506825E-1,-5.468681E-1],"categories":[],"categories_nodes":[],"categories_segments":[],"categories_sizes":[],"default_left":[1,1,1,1,1,1,1,1,1,1,1,1,1,1,1,1,1,1,1,1,1,1,0,1,1,0,1,1,1,1,1,1,1,1,1,0,0,0,1,0,0,0,0,1,0,1,0,0,0,0,0,1,1,0,1,0,1,1,1,0,0,0,0,0,0,0,0,0,0,0,0,0,0,0,0,0,0,0,0,0,0,0,0,0,0],"id":19,"left_children":[1,3,5,7,9,11,13,15,17,19,21,23,25,27,29,31,33,35,37,39,41,43,-1,45,47,-1,49,51,53,55,57,59,61,63,65,-1,-1,-1,67,-1,-1,-1,-1,69,-1,71,-1,-1,-1,-1,-1,73,75,-1,77,-1,79,81,83,-1,-1,-1,-1,-1,-1,-1,-1,-1,-1,-1,-1,-1,-1,-1,-1,-1,-1,-1,-1,-1,-1,-1,-1,-1,-1],"loss_changes":[3.283216E1,2.3952223E1,2.8155972E1,2.0207317E1,1.2992728E1,6.56678E0,3.0095175E1,1.3202381E1,5.7844596E0,1.7015158E1,5.962925E0,6.516144E0,1.4185859E1,1.6007097E1,2.0362617E1,2.5355442E1,2.9617601E1,8.629112E0,5.0675697E0,9.2016745E-1,1.1985159E0,2.8538876E0,0E0,3.079237E0,2.8702383E0,0E0,3.6813169E0,2.1720867E1,2.5864399E1,6.3002424E0,1.4679146E1,1.5734764E1,2.2938418E0,1.1693343E1,6.9264755E0,0E0,0E0,0E0,5.833235E0,0E0,0E0,0E0,0E0,2.8603077E0,0E0,3.2602196E0,0E0,0E0,0E0,0E0,0E0,2.3023777E0,1.8667633E1,0E0,1.47045E1,0E0,2.8828323E0,2.2466782E1,1.4735783E1,0E0,0E0,0E0,0E0,0E0,0E0,0E0,0E0,0E0,0E0,0E0,0E0,0E0,0E0,0E0,0E0,0E0,0E0,0E0,0E0,0E0,0E0,0E0,0E0,0E0,0E0],"parents":[2147483647,0,0,1,1,2,2,3,3,4,4,5,5,6,6,7,7,8,8,9,9,10,10,11,11,12,12,13,13,14,14,15,15,16,16,17,17,18,18,19,19,20,20,21,21,23,23,24,24,26,26,27,27,28,28,29,29,30,30,31,31,32,32,33,33,34,34,38,38,43,43,45,45,51,51,52,52,54,54,56,56,57,57,58,58],"right_children":[2,4,6,8,10,12,14,16,18,20,22,24,26,28,30,32,34,36,38,40,42,44,-1,46,48,-1,50,52,54,56,58,60,62,64,66,-1,-1,-1,68,-1,-1,-1,-1,70,-1,72,-1,-1,-1,-1,-1,74,76,-1,78,-1,80,82,84,-1,-1,-1,-1,-1,-1,-1,-1,-1,-1,-1,-1,-1,-1,-1,-1,-1,-1,-1,-1,-1,-1,-1,-1,-1,-1],"split_conditions":[-3.3150294E-1,1.593785E0,-1.549833E0,1.938118E0,-8.597327E-1,-5.835699E-1,-2.960366E-1,-5.325941E-1,-1.3723948E0,-9.8498046E-1,2.7663093E0,-1.1309339E0,1.9122547E-1,2.6492572E-1,-1.00858055E-1,-7.8354186E-1,2.7205312E-1,7.247242E-1,-1.4992698E0,-1.0457625E0,-9.252749E-1,1.7544945E0,7.008575E-3,1.4204313E-1,-4.6577245E-1,-2.6362158E-2,1.1248497E0,-1.5462561E0,-4.925903E-2,7.7309567E-1,6.665403E-1,-1.527478E0,-7.8143466E-1,-1.6694993E0,-1.0854766E0,-1.9002141E-2,2.6968492E-2,1.1526648E-2,5.136619E-1,-4.059625E-3,-2.7841542E-2,3.4616974E-3,2.8303215E-2,9.7338045E-1,-3.154738E-2,-8.263732E-1,-4.188883E-3,-1.8919632E-2,1.1994926E-2,2.833681E-2,-6.3059498E-3,-4.8165776E-2,-2.7768338E-1,3.286511E-2,1.8189771E0,3.0027619E-2,-7.439258E-2,2.4319472E0,1.1755576E0,2.7849572E-3,2.7714044E-2,-8.1242085E-4,-2.9956179E-2,1.5930055E-2,-3.5783506E-3,3.252075E-2,1.3007701E-2,-2.4179088E-2,7.679388E-3,6.900172E-3,-2.2193396E-2,2.6592668E-3,2.8396994E-2,2.5272138E-2,-1.0318997E-3,2.0423743E-3,-1.9039335E-2,1.652875E-4,2.9179981E-2,-2.0505544E-2,1.1924908E-2,-1.4968491E-2,2.7503017E-2,1.5013649E-2,-1.0937361E-2],"split_indices":[7,9,14,13,5,8,9,9,0,5,9,13,10,7,4,4,9,14,9,3,4,9,0,11,10,0,5,9,0,10,11,7,3,4,3,0,0,0,0,0,0,0,0,13,0,10,0,0,0,0,0,3,13,0,10,0,9,10,3,0,0,0,0,0,0,0,0,0,0,0,0,0,0,0,0,0,0,0,0,0,0,0,0,0,0],"split_type":[0,0,0,0,0,0,0,0,0,0,0,0,0,0,0,0,0,0,0,0,0,0,0,0,0,0,0,0,0,0,0,0,0,0,0,0,0,0,0,0,0,0,0,0,0,0,0,0,0,0,0,0,0,0,0,0,0,0,0,0,0,0,0,0,0,0,0,0,0,0,0,0,0,0,0,0,0,0,0,0,0,0,0,0,0],"sum_hessian":[7.379911E2,2.8572052E2,4.5227057E2,2.5825262E2,2.746791E1,3.2059086E1,4.202115E2,2.3598839E2,2.2264223E1,1.044415E1,1.7023762E1,2.3393288E1,8.665796E0,2.0739546E2,2.1281602E2,5.7202557E1,1.7878583E2,4.7076354E0,1.7556587E1,4.219588E0,6.224562E0,1.5035178E1,1.9885827E0,2.0406872E1,2.9864168E0,3.7361126E0,4.9296837E0,7.730812E1,1.3008734E2,7.9621844E0,2.0485385E2,5.221585E1,4.986706E0,1.03329605E2,7.545622E1,1.9865143E0,2.721121E0,1.7452928E0,1.5811295E1,1.2406452E0,2.9789424E0,1.2438462E0,4.9807158E0,3.6974137E0,1.1337765E1,1.9173828E1,1.233042E0,1.7425895E0,1.2438273E0,3.6952767E0,1.2344071E0,8.911945E0,6.839618E1,1.0938741E1,1.19148605E2,5.485553E0,2.4766314E0,1.714552E2,3.3398647E1,1.3975124E1,3.8240726E1,1.4976274E0,3.4890783E0,1.3209367E1,9.012024E1,7.923877E0,6.753235E1,1.3569784E1,2.2415097E0,1.9818672E0,1.7155465E0,2.4616518E0,1.6712177E1,7.4218683E0,1.4900765E0,2.7960608E1,4.043557E1,1.12699265E2,6.4493413E0,1.2410676E0,1.2355638E0,1.6721016E2,4.2450356E0,1.4850125E1,1.8548521E1],"tree_param":{"num_deleted":"0","num_feature":"15","num_nodes":"85","size_leaf_vector":"0"}},{"base_weights":[1.257789E-2,6.397819E-2,-8.32018E-1,1.04543485E-1,-7.138937E-1,5.8742064E-1,-9.921685E-1,2.90139E-1,-5.3883407E-2,-9.789515E-1,6.693459E-1,1.2925768E0,-3.2093817E-1,-1.1202999E0,1.7413528E-1,3.6462864E-1,-6.3004565E-1,-2.9552534E-1,3.6658353E-1,-4.5567308E-2,-1.3017807E0,1.0121865E0,-1.3603531E-1,3.2660404E-1,-1.2170079E0,9.8054576E-1,-7.772662E-1,4.1567764E-1,-1.1384349E0,1.8952107E-1,-9.0278727E-1,8.339837E-2,-6.701435E-1,1.0598814E0,1.6366078E-1,-1.1410544E0,1.2431321E0,-1.5683448E0,-6.795052E-1,1.2841349E0,1.6957177E-1,-1.3924984E0,-4.0068492E-1,2.2353497E-1,6.7100406E-1,-1.5600411E0,5.762456E-2,-1.1260949E0,1.3804741E0,-2.5708327E-1,-1.226218E0,-2.6063457E-2,1.3975471E0,-8.716246E-1,2.9435736E-1,1.3648514E0,-3.8166362E-1,4.0910248E-2,1.470155E0,-2.0032562E-1,-1.3840883E0,1.1110749E0,-1.2273275E0,-9.698594E-2,-1.4509352E0,9.421974E-1,-1.2906158E0],"categories":[],"categories_nodes":[],"categories_segments":[],"categories_sizes":[],"default_left":[1,1,1,1,1,1,1,1,1,1,1,0,0,1,1,1,1,1,1,1,1,1,0,0,1,0,0,1,1,1,1,1,1,1,1,1,0,0,1,0,0,1,1,0,0,0,0,0,0,0,0,0,0,0,0,0,0,0,0,0,0,0,0,0,0,0,0],"id":20,"left_children":[1,3,5,7,9,11,13,15,17,19,21,-1,-1,23,25,27,29,31,33,35,37,39,-1,-1,41,-1,-1,43,45,47,49,51,53,55,57,59,-1,-1,61,-1,-1,63,65,-1,-1,-1,-1,-1,-1,-1,-1,-1,-1,-1,-1,-1,-1,-1,-1,-1,-1,-1,-1,-1,-1,-1,-1],"loss_changes":[3.2405838E1,2.2270592E1,1.0317545E1,1.969887E1,1.3484669E1,3.5981996E0,6.001335E0,2.137114E1,3.688718E1,8.911423E0,1.8553846E0,0E0,0E0,5.3147774E0,4.3768444E0,2.2415638E1,5.4161777E0,3.2765976E1,1.8475397E1,1.3682434E1,2.5975304E0,8.092637E-1,0E0,0E0,4.191284E0,0E0,0E0,1.3454529E1,4.961564E0,1.2029606E1,3.3977966E0,1.664331E1,2.2795689E1,1.3635422E1,1.657465E1,9.154706E-1,0E0,0E0,9.591147E0,0E0,0E0,1.8944016E0,9.904009E0,0E0,0E0,0E0,0E0,0E0,0E0,0E0,0E0,0E0,0E0,0E0,0E0,0E0,0E0,0E0,0E0,0E0,0E0,0E0,0E0,0E0,0E0,0E0,0E0],"parents":[2147483647,0,0,1,1,2,2,3,3,4,4,5,5,6,6,7,7,8,8,9,9,10,10,13,13,14,14,15,15,16,16,17,17,18,18,19,19,20,20,21,21,24,24,27,27,28,28,29,29,30,30,31,31,32,32,33,33,34,34,35,35,38,38,41,41,42,42],"right_children":[2,4,6,8,10,12,14,16,18,20,22,-1,-1,24,26,28,30,32,34,36,38,40,-1,-1,42,-1,-1,44,46,48,50,52,54,56,58,60,-1,-1,62,-1,-1,64,66,-1,-1,-1,-1,-1,-1,-1,-1,-1,-1,-1,-1,-1,-1,-1,-1,-1,-1,-1,-1,-1,-1,-1,-1],"split_conditions":[1.503501E0,1.5843508E0,-8.045391E-1,-1.7358938E-1,2.6092672E0,2.2311409E0,1.2586863E0,1.938118E0,6.3576674E-1,-8.7420785E-1,-7.8558946E-1,2.5851535E-2,-6.418763E-3,-8.809897E-1,1.5223145E0,1.1662012E0,-1.3628254E0,3.9712615E-2,-8.700622E-1,-7.039355E-1,4.4814056E-1,-7.006445E-1,-2.7207062E-3,6.5320805E-3,1.7306585E0,1.9610915E-2,-1.55453235E-2,2.1840996E-1,1.7906175E0,-7.586519E-1,1.6912038E0,1.0920897E0,1.2222402E0,9.284729E-1,2.3707204E0,-1.0258248E0,2.4862641E-2,-3.1366896E-2,6.0322535E-1,2.5682697E-2,3.3914354E-3,1.449091E0,1.7792294E0,4.4706995E-3,1.3420081E-2,-3.120082E-2,1.1524912E-3,-2.2521898E-2,2.760948E-2,-5.141665E-3,-2.4524359E-2,-5.212691E-4,2.7950943E-2,-1.7432492E-2,5.887147E-3,2.7297027E-2,-7.633272E-3,8.1820495E-4,2.94031E-2,-4.0065125E-3,-2.7681764E-2,2.2221498E-2,-2.4546549E-2,-1.9397188E-3,-2.9018704E-2,1.8843947E-2,-2.5812315E-2],"split_indices":[6,9,13,7,9,7,12,13,7,14,2,0,0,14,13,2,1,4,9,10,0,10,0,0,6,0,0,9,14,10,11,9,9,13,7,0,0,0,4,0,0,1,1,0,0,0,0,0,0,0,0,0,0,0,0,0,0,0,0,0,0,0,0,0,0,0,0],"split_type":[0,0,0,0,0,0,0,0,0,0,0,0,0,0,0,0,0,0,0,0,0,0,0,0,0,0,0,0,0,0,0,0,0,0,0,0,0,0,0,0,0,0,0,0,0,0,0,0,0,0,0,0,0,0,0,0,0,0,0,0,0,0,0,0,0,0,0],"sum_hessian":[7.442374E2,7.0241425E2,4.182318E1,6.684223E2,3.3991997E1,3.9698496E0,3.785333E1,3.074345E2,3.609878E2,2.8771122E1,5.2208757E0,1.9967772E0,1.9730723E0,3.4141907E1,3.7114246E0,2.8496973E2,2.2464775E1,2.2943109E2,1.3155669E2,7.6870346E0,2.1084087E1,3.4818969E0,1.7389789E0,1.9900694E0,3.2151836E1,1.9921987E0,1.719226E0,2.763088E2,8.660909E0,5.6854825E0,1.6779293E1,1.1444655E2,1.1498454E2,2.8830938E1,1.02725746E2,4.216919E0,3.4701154E0,1.3696555E1,7.3875318E0,2.2361922E0,1.2457047E0,2.5881989E1,6.269848E0,1.587323E2,1.1757651E2,6.1786447E0,2.4822645E0,2.7272341E0,2.9582484E0,6.19878E0,1.0580513E1,1.0655152E2,7.8950267E0,9.519493E1,1.9789618E1,2.3840502E1,4.9904375E0,9.4845894E1,7.8798504E0,1.2402939E0,2.9766252E0,1.4898211E0,5.8977103E0,1.2318676E0,2.465012E1,2.475561E0,3.794287E0],"tree_param":{"num_deleted":"0","num_feature":"15","num_nodes":"67","size_leaf_vector":"0"}},{"base_weights":[-2.0060776E-2,2.4585146E-2,-7.171599E-1,-5.536491E-2,4.1470686E-1,9.231704E-1,-9.556537E-1,6.609025E-1,-1.0136421E-1,7.710132E-1,6.085412E-2,-6.5288395E-2,1.401069E0,-1.0947969E0,6.7350554E-1,-1.0169663E0,9.365509E-1,1.4846617E-1,-2.584265E-1,1.1145864E0,1.71649E-1,3.847402E-1,-8.569831E-1,6.443743E-1,-1.1740041E0,1.1511194E0,-1.6094671E-1,1.4542247E-1,-1.3903356E0,1.4638904E0,5.3497875E-1,9.9688135E-2,1.4225719E0,4.3327417E-2,-4.351666E-1,-9.5466596E-1,1.2576606E0,-3.505061E-1,1.4918278E0,-4.2423275E-1,8.836236E-1,-1.2106063E0,6.5549195E-1,-1.3295091E0,-3.1854358E-1,2.0329553E-1,1.5836089E0,3.546344E-2,1.4023589E0,2.598205E-1,-8.3419204E-1,3.8522288E-1,1.6106136E0,3.417493E-1,-5.8419347E-1,-7.61154E-1,-1.07820794E-1,1.5778308E0,7.6601785E-1,-1.1904477E0,2.7176183E-1,1.352615E0,-9.6783143E-1,1.1808456E0,-6.7297846E-1,-2.0500506E-1,-1.5727324E0,1.1208593E0,-1.6212629E-1,-1.3773382E0,-1.1690639E-1,1.0907944E0,-1.257524E0],"categories":[],"categories_nodes":[],"categories_segments":[],"categories_sizes":[],"default_left":[1,1,1,1,1,1,1,1,1,1,1,0,0,1,1,1,1,1,1,1,1,1,1,0,1,0,0,0,0,